1572 50
food 7.192133e-05 0.0009772416 0.010765742 0.017033994 -0.017184913 -0.02209521 0.018223274 0.02773014 -0.018957578 -0.006436423 0.01159437 -0.010875788 -0.005776264 0.015254343 -0.0124108335 -0.001626093 0.010662679 0.004030724 -0.026573997 -0.023804963 0.0152202565 0.01594146 0.022647329 -0.0012084174 0.019146025 -0.0067700665 -0.007182342 0.00845807 -0.023497777 -0.0069387476 -0.011609252 -0.0037756786 0.015307655 -0.011761857 -0.008526746 0.002478915 0.019810682 -0.0091102505 0.003934776 -0.013569562 -0.013386598 0.0074407607 -0.01728558 -0.008636691 0.012728948 0.00039643992 -0.014070729 0.013630015 0.01680867 0.017998569
place -0.015925605 0.008918517 -0.0068047275 0.0009242247 0.019486321 -0.016979529 0.014274628 -0.0031728924 -0.017255504 0.020358073 -0.006956037 -0.008083467 -0.0053873546 -0.012561325 -0.0062357974 0.007077725 0.0038257018 0.01323055 -0.016668338 -0.00063797977 0.012193547 0.022932831 0.007175824 -0.020705316 0.015223726 0.0027298604 0.009642507 -0.004528321 -0.014436683 -0.015994502 0.0025193095 0.0035980768 0.0069333455 0.017165046 -0.016475772 0.011414882 0.015983528 -0.007091902 -0.0018846126 0.009059127 0.010769447 -0.0029123146 0.0075049894 -7.369323e-05 0.03420784 0.010916422 -0.016913613 -0.02135249 0.009098903 0.0122169135
nt -0.0172794 0.008213541 0.011702707 0.010006928 0.017232668 -0.021395568 0.0072037326 0.022913016 -0.015873127 -0.011253311 -0.0041369232 -0.026021056 -0.0077459766 0.017651496 0.003413737 0.017481066 0.02012706 0.017858332 -0.019156719 -0.007749798 0.0051875543 -0.0029548288 0.027320767 -0.023380416 0.01935141 0.007183315 -0.015600289 0.006456316 -0.012566478 0.014899506 0.024032153 -0.010778243 -0.0048773014 -0.008426913 0.0036162704 0.013246233 0.018064294 0.015398121 0.023167776 0.014352457 0.024056237 -0.018434813 -0.018759819 -0.0007040671 0.0074909693 0.0172756 0.013010564 -0.010080862 0.010869802 0.0026533953
good 0.016700499 -0.019439034 0.0011318788 0.0066835987 -0.001010826 0.010645907 0.021499379 0.019593457 -0.007903313 0.016277479 -0.01990212 0.00045700686 -0.00755604 -0.00820527 0.0044505936 0.011712292 0.019136893 -0.0104057 0.0076113474 0.010093984 -0.0066946796 -0.013507192 0.016520655 0.011319275 0.0029591478 -0.012961127 -0.017432688 -0.0068255505 0.0043612258 -0.0065818364 -0.016193144 0.006835166 0.006953053 -0.011168318 -0.00087262003 0.0005501934 0.0026836405 -0.018806724 0.0082204845 -0.012613594 0.0068364595 -0.0042401687 0.005038127 -0.015729696 0.0032184855 0.0059274416 0.011278275 -0.009859236 -0.014551795 0.008956716
servic 0.00089435506 0.0060529723 -0.0125540905 -0.0031234936 0.01684107 0.008897316 -0.004013272 0.012456865 -0.023314927 0.013817686 -0.012321478 -0.012137097 0.021072984 0.003807183 0.0125801405 -0.010591723 0.013531101 0.021390911 -0.024735747 -0.014214945 -0.013653639 -0.0061379587 -0.0014420951 -0.018686615 0.021114143 -0.010081779 0.01296571 0.007731125 -0.019586703 0.008874104 0.0141397985 -0.016330222 -0.017232781 -0.0031987445 -0.020372104 0.001717301 0.0017585413 0.008159407 0.0061188475 -0.005272723 -0.0069212713 0.0017588184 -0.0011077606 0.013976746 0.0182355 0.008701017 0.003404996 -0.009678492 -0.0030805261 -0.0025298996
great 0.0030750628 -0.005224279 -0.013361902 -0.016091133 -0.016885461 -0.017625595 0.00026506739 -0.0011901958 -0.019102328 -0.006165759 0.0060445224 -0.01286442 0.019031769 0.004372122 -0.017053176 0.020535996 0.019810302 0.011959463 -0.021475846 0.008600596 0.0081645 0.014400448 0.014370817 0.0021043378 -0.0018240388 0.016518226 0.015707629 0.0050954567 -0.011811096 0.0011405015 0.005322217 -0.018548928 -0.018876905 0.0016463742 -0.0008526225 -0.00652129 -0.007664273 -0.013377381 0.019816957 -0.0031543595 -0.0044172266 0.009818592 0.018462759 -0.008770816 0.02613922 0.011054873 0.012706248 -0.003618399 0.022001013 -0.014819585
go -0.016933208 0.019087307 -0.000121592035 -0.0053190044 0.010571507 -0.0131157935 0.0097065875 0.020756038 0.00511593 -0.014743528 0.016268179 0.0032906304 0.009873346 -0.0110178245 0.015267045 -0.0032523773 0.02110669 -0.009240257 -0.023782654 0.010117553 0.003928341 -0.00052220206 0.026430897 0.017308181 -0.015867312 0.0055739675 0.009703962 0.005883219 -0.002345605 0.0009910152 0.0029720024 -0.0088159265 -0.016658371 -0.0026297122 0.0046199607 0.021520402 0.021101201 -0.01005447 -0.016807623 0.017062811 0.0108019775 0.008145687 0.012090756 -0.0053409226 0.022333588 0.006876241 0.006637302 -0.0080902325 -0.0023399012 -0.005122279
back 0.008147696 0.0005378167 -0.018247822 -0.020704437 -0.011702107 -0.0046607377 0.007710728 0.024850482 0.0053950297 -0.008162043 -0.0019436289 0.0048641614 0.016912274 -0.00027617693 0.0069799693 -0.0104254745 0.0022283434 0.01762219 -0.011289544 -0.022589061 0.012163551 -0.0047820634 0.0035030302 0.018295428 -0.0017334116 -0.0087039685 -0.013423982 0.013129227 -0.016194083 0.004553064 -0.008786013 0.011511748 0.0074919197 0.0067606885 -0.004798732 -0.0016523206 0.02074618 0.012226852 -0.0022578104 -0.021657934 -0.010870744 -0.004144648 -0.0018138037 -0.004551528 0.02614721 -0.0005397978 0.012582702 -0.01910898 -0.0008181571 -0.011367579
time -0.013789583 0.002868266 -0.013008287 -0.006044609 0.008969354 0.004295623 0.0069451085 0.013723294 -0.017265117 0.015661394 -0.01613319 0.0009920446 -0.014098012 0.0073943716 -0.013528899 -0.0060120956 -0.00056279026 0.013715974 0.0016739223 -0.014852807 0.0027841316 -0.0113433525 0.02511101 0.016281443 0.00019198477 0.0025969944 -0.0035270608 0.008224874 -0.025671419 0.0023600273 0.016772674 0.0030289004 -0.001294863 -0.015902331 0.013177228 -0.005589176 -0.0020768014 0.00996802 0.0017957003 -0.0013151744 0.01041669 -0.016896738 -0.01921073 0.017859085 0.025943637 -0.013049905 0.008425493 -0.006501867 0.016389597 -0.014629767
like 0.008098178 0.00903902 0.020937556 -0.009823482 -0.0008936113 -0.022442082 -0.0147507535 -0.008974364 -0.011734427 -0.011614444 0.006340716 -0.020011047 0.007732931 0.0042284816 -0.009488561 0.00033422778 0.024664687 0.020326003 -0.01962488 0.013759077 -0.010797167 0.018019777 0.0026945097 0.0044251694 0.011865889 0.014008356 -0.009800485 0.015102105 0.0071164113 -0.018178878 -0.012170424 -0.016792966 0.0021947024 -0.002770494 -0.017949179 -0.009886452 0.020823376 0.0068984167 -0.0147249 -0.014052501 0.012726314 -0.012436137 0.010976572 -0.008487962 0.017530678 -0.015271673 0.013702216 0.003766562 0.008305626 0.005275875
realli -0.017010022 0.0044474644 -0.0011200407 -0.018903902 -0.01783184 -0.007274304 0.011443706 0.01286046 -0.01832076 -0.01313264 -0.012259796 -0.009395512 -0.013138837 -0.017647207 -0.0073698265 -0.014905534 -0.009096975 -0.01091791 -0.010851811 -0.006302593 -0.017491821 0.0022988843 0.022076732 0.014155215 -0.011173303 -0.0065940702 0.003763472 -0.021323448 -0.0019454601 0.014050378 0.013420995 -0.018646766 -0.011307409 -0.014643976 -0.0025472702 0.023144867 0.014262395 0.011775137 0.01268188 -0.008940267 0.023300929 -0.016768962 -0.014606988 -0.0046925093 0.0063904156 -0.0057710027 -0.0009664711 0.011248099 0.0025913676 -0.0038793362
love 0.005829377 -0.016788548 0.016408209 0.016961018 -0.018399483 0.0016148238 0.022222854 -0.011052978 -0.017989567 -0.014768757 0.01591643 -0.0047386787 0.019530922 -0.015537356 0.0057108607 0.0064260517 0.0039578285 0.0056133275 -0.019649016 -0.021177487 0.0050834743 0.014994642 0.019989232 0.010356228 0.0013724976 0.017142948 -0.02117199 0.005926665 -0.0032882127 0.00820865 0.016202692 -0.014371765 0.009824603 -0.017304441 -0.0036483258 -0.014019292 -0.008418759 0.019386947 -0.0018598917 0.0033539927 0.02148751 0.016540956 -0.016357018 -0.0056710285 0.025471754 0.010201977 -0.0029066713 -0.020006662 0.0086523 -0.01348697
would 0.016534492 -0.008965068 -0.0014752111 0.0011953426 0.00098073 -0.0031416565 0.015398569 0.006525883 -0.013204338 -0.002285976 0.00941527 -0.0026371933 0.00043539974 0.020645162 -0.012037784 3.328528e-05 0.022285888 0.014935858 -0.004321143 -0.021832926 0.0027623 -0.00060998753 0.025607312 0.00081611576 0.0068764254 0.00582472 -0.0064393855 -0.012227584 -0.0054761516 -0.003172675 0.016202 0.017205624 -0.0039470955 0.00767505 -0.0151476655 0.00873929 -0.011934905 -0.015694128 -0.009091035 -0.021009928 0.019683588 -0.014036612 0.01706796 -0.014474103 0.015779743 0.019896498 -0.014689071 -0.024188867 -0.0041128662 -0.005962307
best 0.00011025872 -0.017437864 -0.016784906 0.005018706 -0.015003698 -0.023848021 -0.0011132639 -0.010795051 -0.020732725 -0.01574126 -0.0030176095 -0.014481372 0.015330802 0.004156346 -0.008798175 0.014304113 -0.008459889 -0.007872038 -0.021528764 -0.012196949 -0.0031326916 0.01713281 0.0012968067 0.008062013 0.01799102 -0.014797105 0.00534284 0.010563946 -0.011657207 0.01383845 0.014764379 -0.014748316 -0.016042655 0.0078115766 -0.006165294 -0.007297824 0.021478422 -0.009392035 -0.010262824 -0.0032891445 -0.000747524 -0.0012214836 -0.006921217 -0.0006651228 0.0073666605 0.0026180628 0.017170388 -0.016073313 0.001193546 0.010457459
disappoint 0.01649551 -0.008707724 0.018359207 0.016061096 -0.008068224 -0.0029569624 0.010930166 -0.003336906 -0.015438027 -0.01253743 -0.0028105776 -0.004282487 0.0102770105 -0.0035400505 -0.0017454149 0.0059110466 0.012372855 0.00087067817 -0.017838325 -0.02105043 0.0005562646 0.015683793 0.007047845 -0.018924259 -0.014161001 0.013322328 -0.0099503705 0.012004422 -0.017158894 0.017495159 -0.011640891 0.0059425086 -0.0031973394 -0.012165675 -0.008670112 0.00089723064 -0.009060184 -0.0008530328 -0.013807063 0.0037412192 0.021200692 -0.0060957563 -0.0024825244 0.007274908 0.02294079 -0.011294581 -0.013120264 -0.008649925 0.02158331 0.0014820675
wait -0.017546453 -0.0027871719 0.020406935 -0.01604353 -0.0100424625 0.014405852 -0.015371799 0.013357786 -0.003427748 0.014487114 0.014766817 -0.010928514 -0.0067707673 0.019522784 0.0024937238 0.013950486 -0.016009293 0.020892715 -0.0083252285 -0.015792286 0.0070277317 0.0021120613 0.015330385 -0.006033954 -0.0050189276 0.004485927 0.014133099 -0.012052702 0.0004974473 -0.015406937 -0.011892253 -0.001626799 -0.020091612 0.0071874154 0.0006783498 -0.000987343 0.012266414 0.021479344 0.018730711 -0.005982185 0.0077514984 -0.009356473 -0.01609235 0.012984556 0.0038969126 -0.0009379689 -0.0029247545 -0.012831006 0.012932331 -0.009381852
ever -0.018651418 0.018222125 0.008668826 0.018071974 0.015080001 0.0016679767 0.023336248 -0.0039144265 -0.018529417 0.009643306 0.005419208 -0.016329814 0.02101876 -0.006383314 0.018414099 0.0030622862 -0.009875296 -0.002894208 -0.020397898 -0.008679197 0.0031804396 0.022029616 0.023941992 -0.0144834425 0.010315776 0.005213661 -0.0074642305 -0.02003799 -0.0023482002 -0.015887193 0.015136636 -0.013168089 0.009123604 0.02169216 -0.002514789 0.012874483 -0.0016084306 0.016093591 0.01054363 -0.020495825 -0.0011539852 0.0056030243 -0.00016955163 -0.0023079962 0.0044204146 -0.0026447861 0.0016511714 0.0047322973 -0.004892964 -0.007819859
get 0.0004037583 0.0010030309 0.0010637981 -0.010842661 0.010582726 -0.011061019 0.008372347 0.009450394 0.003793517 -0.012465357 -0.016229864 -0.016037395 0.021564664 -0.0007277441 -0.021291405 0.00048415796 -0.004844772 0.013533318 -0.028376544 0.0012630175 -0.017317 0.007470411 0.019850038 0.012769005 -0.009603291 -0.011696447 -0.017706329 -0.018591495 -0.026364915 -0.0036988342 0.0017435416 -0.015978811 0.010075802 0.0048111053 0.007787303 0.008608791 0.004674619 -0.012694595 -0.0011090833 0.0050393115 -0.0041470337 -0.0007417078 0.0062912274 -0.0031195479 0.030850511 0.01767894 0.005820941 0.00892569 0.018194461 -0.011877428
restaur -0.009794147 -0.013716192 -0.014837381 0.01639129 -0.0027625333 -0.019273883 -0.005343795 0.01691796 -0.011735143 -0.0062231906 0.00065513514 -0.011429542 -0.001468344 0.0042476137 -0.0077526956 0.01826771 0.010885987 -0.018402116 0.005328205 -0.017064577 0.0016834426 0.013083053 -0.0046350863 -0.006104198 0.020566886 -0.00820576 -0.01870524 0.015933625 -0.010235757 -0.009143625 0.019332165 0.0074807834 0.006276831 0.020753961 -0.019582054 0.01567327 0.006433567 0.01011255 0.0061677666 0.005696103 0.013461745 0.010529067 -0.0061121085 -0.009477212 0.0086319605 0.0059007653 -0.0060423845 0.008235695 0.0129345395 0.015485668
friendli 0.0060734525 0.016652178 -0.0015795435 0.016107548 0.008105987 -0.020611232 -0.0055745128 0.00051347807 0.0053793206 -0.0007288141 -0.0077103856 0.011984607 0.020044604 -0.001950934 -0.012727072 -0.008649856 -0.0064905076 -0.018738318 -0.0027651838 -0.010684268 0.0053217 0.014499819 -0.0033224742 -0.02108474 0.00681803 -0.013031702 0.0023498198 -0.00929912 0.009821214 0.0018599707 0.009488951 -0.006099172 -0.005524895 0.016712392 6.2687745e-05 -0.008304953 -0.014129096 0.0035513537 0.015715552 0.008770084 -0.014710842 0.016604135 0.007451102 0.014840609 0.02671105 -0.01439609 -0.017524607 0.008125326 0.022997325 0.006834718
one 0.014302381 -0.0031746037 0.016682416 -0.019453604 -0.01489079 -0.01818156 -0.005287134 0.015749782 -0.012956513 -0.016385665 0.014952668 -0.011758571 0.018963126 -0.008046458 0.006093357 0.010488141 0.007394815 -0.0044824644 -0.00073684176 -0.020064244 -0.0053709177 -0.0018143078 0.01974363 -0.008695491 -0.0099111 0.00874906 -0.0034005367 -0.009292983 0.00863929 0.0084474115 -0.0055699884 0.0007289749 0.01668563 0.017408252 0.010095592 0.013485643 0.0069663846 -0.0022568512 -0.010741241 -0.003809987 0.00097160443 -0.003130926 -0.012484437 0.015224123 -0.0052207983 -0.014097134 -0.0046202373 -0.0067106914 -0.0114788925 0.001624633
also -0.009969754 -0.0026729004 -0.013958802 0.0035683282 0.0077476935 -0.005379078 -0.0080491705 0.0023079938 0.008612235 0.0090033375 -0.019979037 -0.01160321 0.0068928185 0.005915119 -0.020735549 0.009974311 -0.014514462 -0.014063896 0.00012561755 -0.009797875 0.0073946877 0.021411479 -0.0014075197 0.017059622 0.0074676266 0.019964479 0.008719517 -0.019926334 -0.011882578 0.01372203 0.013683274 0.016190855 0.011596402 0.018090356 -0.022709819 0.012525932 -0.008224298 0.007985779 0.015162949 0.0064166244 0.019469697 0.0013781275 -0.0024137897 0.0113351215 -0.00334707 0.00031254662 0.019345475 -0.015047375 0.011845462 -0.016706815
order 0.019779814 0.016137695 0.0034552375 0.00962101 0.0036680321 -0.017127197 -0.00010128581 0.017633554 -0.014006479 -0.007140642 0.0078488225 0.0010094434 -0.0021950994 -0.0044376124 0.010582088 -0.010357948 -0.0034402225 -0.012044858 -0.01401757 -0.020215884 -0.008518663 -0.014254141 0.007865168 -0.018405916 -0.016799 -0.01587379 -0.016449343 0.011819401 0.0033386576 0.0012976978 -0.0036897573 -0.015839145 -0.0009696963 0.002748277 -0.001922272 0.0054907124 0.0038866764 0.0010221067 -0.014070483 -0.0139994845 -0.013226115 -0.004274793 0.0036149644 0.015029285 0.0027342513 -0.004278879 0.019559627 -0.0033589888 -0.0007711106 0.016690418
eat 0.005634277 -0.0103873145 0.014162014 0.00838149 -0.012965966 -0.0054648756 0.0042544845 0.0172944 -0.008729275 -0.004589852 0.0011791101 -0.0034438977 0.0035847076 -0.0034934233 -0.013305959 0.016439678 0.018680163 0.018208511 -0.023075258 0.002107777 -0.006674181 0.022463359 0.011088844 0.00818835 0.008197188 0.013755017 -0.014211949 0.014530613 -0.009549243 -0.008586992 -0.0022415775 0.018972203 -0.015606807 -0.0026450176 0.012201385 0.004082092 -0.009994646 -0.011322359 0.020246122 0.010098585 0.013465517 -0.008539856 -0.017977856 0.0075977724 0.022007579 -0.010808228 -0.014626224 -0.010176106 -0.006038896 -0.0047942484
bad -0.0035269107 -0.010726056 0.019587835 -0.0188402 0.010084063 0.008108327 -0.0005839262 0.022137754 0.016774349 -0.010172491 -0.013541806 -0.016720893 -0.014952217 -0.005250497 -0.012371479 -0.015895672 0.0036255554 0.0067942645 0.009189439 -0.0070193755 -0.009103669 0.004622494 0.004443816 0.01511734 0.0030049107 0.014718019 -0.018486245 0.015629325 -0.0070248432 0.01790465 -0.013880318 0.0028363036 0.00042315412 0.0010232837 -0.011955184 -0.015913373 -0.013600979 -0.01482225 0.0054657147 -0.00059895567 -0.0008021635 0.013106165 -0.004996415 -0.0029811026 -0.012893725 -0.019284524 0.018120257 -0.014195244 -0.010203583 0.010322392
nice 0.013969479 -0.01285892 0.002960187 -0.012765529 0.004998123 -0.014207681 -0.003491863 0.011204868 0.011252842 0.014915288 -0.022116313 -0.016889019 0.017531494 0.0060037896 -0.011045446 0.0024126288 0.023383774 -0.0007880961 -0.026836332 0.00019061528 0.013002485 0.016960924 0.014956377 -0.013717834 0.004071873 -0.00013015325 0.005507846 -0.017903937 -0.021884425 0.0010570756 -0.014094037 0.009893706 -0.0036575806 0.021907587 -0.013777509 0.0042937957 0.01805919 -0.0065265056 -0.0071941414 0.00013391238 0.009405435 -0.007149905 0.012975642 -0.0151647655 0.016450927 0.0011595043 0.018549932 0.0071485294 0.018746005 0.015070975
never -0.018825011 0.019314626 -0.015150585 -0.005796959 -0.009527126 -0.013261487 -0.013765296 -0.011568594 -0.013514965 -0.0023258214 -0.0118563995 0.008789075 -0.017505918 -0.009343369 0.017612468 0.01571437 0.01808937 0.009354148 -0.0037942836 -0.014407448 0.0125108715 0.007929781 0.019883556 0.011847445 0.01878182 0.018027604 -0.02214448 -0.014616779 -0.0010783931 0.013601673 0.016060408 0.0103296405 0.013699655 -0.008649555 0.011612549 -0.005175853 -0.016535645 0.019170888 0.0044640554 -0.007458658 -0.0021887114 -0.009808081 0.009711438 0.008518273 8.443738e-05 -0.014436652 -0.006887575 -0.0037530726 0.016074575 -0.0060920073
amaz 2.56993e-05 0.0016481767 -0.0139644705 0.0037699284 -0.0015070856 0.0017041931 0.012376951 0.0014644568 -0.009857058 0.015938427 0.008220564 0.00924637 0.010217437 0.018548382 0.0135238245 -0.0010851086 0.020482104 0.01012884 0.0065992475 -0.0046784137 -0.0035537523 -0.006360231 -0.013035694 0.0051103034 0.020508535 0.018191501 -0.006288466 0.01165182 0.0036912574 -0.008178599 0.005952059 -0.011629679 0.014792091 0.012146549 0.003792175 0.010885357 0.01902528 0.015637157 6.8806716e-05 -0.016133176 0.020402545 0.013429664 0.003647319 -0.002629392 -0.005817213 -0.008412148 0.017793057 -0.00939522 -0.009729826 0.019740578
delici 0.015797561 0.018620051 0.0023907388 -0.01727326 0.01752651 -0.010005041 0.013218478 0.012324242 0.016530044 -0.018481828 0.01686437 -0.021303436 -0.013112416 -0.017737953 -0.012381822 0.015849093 0.02037296 -0.0061481246 0.0045236256 -0.008460018 0.01613478 0.013871693 0.0032654824 -0.008437243 -0.012157601 0.009935637 0.00102668 -0.0061436077 0.012739392 -0.0072840774 -0.017242376 -0.005260125 -0.0011327373 -0.012345242 -0.012660347 -0.014787847 0.01932988 0.015914986 0.00088949077 0.013402619 0.018118707 -0.0022004088 0.01358875 0.007278579 0.014414166 0.014613807 -0.009478253 -0.006794364 0.0040997495 0.007898355
vega 0.0071007716 0.0107254675 0.009868345 -0.017846419 -0.005622273 -0.019088164 0.022179715 0.015826453 -0.0050845565 0.008771029 -0.01792901 -0.017441316 0.008012544 0.013974792 0.0063182977 0.013634974 -0.00070518407 -0.005316401 -0.004949515 -0.009561991 -0.010646565 -0.012005052 0.018419674 -0.004043415 -0.00044001022 -0.015186989 0.01602662 -5.5271983e-05 -0.0012611612 0.0057339617 -0.0127816675 0.0027121883 0.0039498247 -0.015673863 0.007998963 0.008654845 0.016844196 0.011644722 -0.0036599508 -0.016494997 0.017974073 0.0020448146 0.010686688 0.012394124 0.011428189 -0.011684005 0.00068262644 0.012852977 -0.008534548 0.018388614
tast -0.013225806 0.008917879 0.0045107584 0.013570179 -0.00778426 -0.014080713 -0.008815266 0.012944231 -0.015195468 0.017989766 -0.011313725 -0.023424262 -0.007365108 0.014184724 -0.015055977 -0.008747281 -0.011034278 0.013040912 0.0003983188 0.0029089483 -0.0060778307 0.015808225 -0.006206254 -0.0054203714 -0.00810362 -0.0018745759 -0.007107099 0.015369141 -0.005863217 -0.016675014 -0.008866218 -0.014821233 0.0029089558 0.021237982 -0.014129348 0.020802347 0.019415425 -0.012789885 -0.015251444 0.0166166 0.021121085 -0.011932127 -0.013161754 0.016144926 0.01613871 0.017430667 -0.014727039 -0.023469035 0.0070661292 -0.020308167
come -0.009522128 -0.0072789025 0.019797694 0.01677844 -0.0048337127 0.008656264 0.018279636 -0.0005694114 0.015618284 0.015104588 0.0023434027 -0.011233089 -0.00875925 -0.005341143 0.014829629 -0.011763687 -0.0035431623 0.018748859 0.0033141149 0.010132785 -0.016009694 0.0007657911 0.014432153 -0.01059564 0.018010745 0.019350616 -0.0022842563 -0.0051416764 -0.004999154 -0.011398441 -0.015912296 -0.0032520795 -0.0068410197 0.009705507 -0.015754871 0.013760989 -0.012293209 -0.014877175 0.018772481 0.01617446 -0.004209389 0.005533135 -0.01165693 -0.017575271 -0.0060500894 0.013809213 0.013398491 0.016448727 0.01684741 0.013159061
even 0.002665811 -0.019277751 0.01033848 -0.0013077131 0.013763934 -0.0017826885 -0.0025965674 0.022965588 -0.0033972664 0.0014113195 -0.011936924 -0.02264729 -0.013497139 0.018998794 -0.02044678 0.020207303 -0.014285346 0.0010094236 -0.0110421525 -0.021358915 0.01783784 0.017660288 0.013065424 0.0077199223 0.004324634 0.019488556 0.010473891 -0.021817133 -0.014516456 -0.0021784233 0.0092472425 -0.009985193 0.00010274072 -0.013588838 0.0027346562 0.014002129 0.012090222 -0.004113323 -0.01397535 -0.021551125 0.0031532513 -0.016542142 -0.014033325 0.012330464 0.023207536 0.0045367912 -0.014439252 -0.016714009 0.02242845 0.0072421
price -0.010200266 -0.015270144 0.0022996413 0.0065330234 0.0045212684 0.003073844 -0.009469387 -0.016077844 -0.017933054 0.0015329208 0.007898702 0.006240137 0.005059948 0.011815399 -0.0018526338 0.009036151 -0.01644581 0.016255904 0.008118519 0.008672247 0.014929038 0.018875081 0.0049780533 -0.004392832 0.003675013 -0.018511781 0.015458826 -0.013724529 0.013649353 -0.008537748 0.002799738 -0.019103905 -0.021171609 -0.014659327 -0.017497048 0.003109615 -0.013010212 -0.009563061 -0.008749956 -0.010523933 0.016496724 0.008923254 0.017775258 0.014093608 -0.00634766 0.015079493 -0.018068722 -0.0077825137 -0.013232314 0.008430366
experi 0.004253487 0.014141592 0.0064022597 -0.014685284 0.015859695 -0.015444597 0.020561367 0.010595447 -0.012246666 -0.008759788 -0.01048748 -0.015658788 0.020050203 -0.0041346718 0.014033579 -0.01883838 0.0066644372 -0.0021306681 0.010664963 -0.020497741 0.015355438 -0.008131189 -0.00799894 -0.012490562 -0.004349771 -0.006618549 -0.008392469 -0.016491473 -0.0026283085 -0.0007404879 -0.0014386979 0.006963547 -0.016729685 -0.0054684007 0.008643312 0.01977738 -0.018460434 0.015585386 0.011895807 -0.009852665 0.02003319 -0.019683879 0.0150476415 0.0107613085 0.008683319 -0.010273611 -0.007353722 -0.009311147 0.0062245214 0.002872994
pretti 0.014990358 0.020110717 0.018370744 -0.00845173 0.020470306 -0.0055677895 0.012477374 0.010209233 -0.006429552 0.007936674 -0.012592727 -0.015890943 -0.014223994 0.0053368076 0.011387941 0.0028656889 0.005173719 0.007525444 0.010680939 -0.01808889 0.0048132595 -0.011773952 0.012202833 0.017999172 0.018352993 0.013442294 0.013372142 0.012053084 0.008948493 0.01799707 -0.007837556 0.01786171 0.008283925 -0.0026089977 0.014890198 0.013614107 0.02124643 0.00734077 0.021830551 0.00011865327 0.021954691 0.0053104786 0.013582888 -0.0071206586 0.021003745 0.015211732 -0.0031656187 -0.0070951437 0.010497701 -0.014325991
came 0.019945795 -0.019229688 -0.012330258 0.0046196007 0.014504448 -0.015910855 0.008765388 0.025027419 -0.020151524 -0.011676202 -0.013194276 -0.013560065 0.005972766 0.02103278 0.011422318 0.0029671544 0.008916416 0.018653182 0.012152956 0.0074326885 0.012825836 -0.011684587 -0.0010661077 -0.012671345 0.01617226 -0.003632459 -0.021664642 0.013614443 0.011753444 -0.0057227258 0.020788334 -0.0028093078 -0.009752362 0.0008203057 -0.0023267977 -0.0028474752 0.0080788415 0.013210575 0.016171116 -0.020401074 -0.00015617641 -0.013054402 0.015817756 0.013308347 -0.0003900254 0.0051170476 -0.0109898 -0.0047483537 0.02389132 -0.005349837
could -0.009961988 -0.014551681 -0.0051868064 -0.0028351282 0.0077098724 0.015745416 -0.004111576 0.008753565 0.015052226 0.0034560603 0.00042639242 0.015866773 0.020057015 0.016292349 -0.013921908 0.020641916 0.014255085 0.019131606 -0.009048076 0.0039156587 0.014042187 -0.005231337 0.017939398 0.0038816112 0.021757709 -0.006155962 -0.0091600865 0.01134441 -0.022352125 -0.014105232 -0.011658702 -0.0017739116 -0.006469556 0.015133367 0.016866762 0.0017083045 0.0044928733 0.0054754424 -0.0019330465 -0.018304033 0.018638331 -0.009982039 0.0093609225 0.0184774 0.012440317 0.006715655 0.008633807 -0.008671782 0.011269652 9.4613686e-05
minut 0.011289143 0.0110138 0.005129249 0.010538528 -0.017235031 0.0083211055 0.02140771 -0.0022913725 -0.0021610088 -0.010007091 -4.942234e-06 8.639336e-05 0.018528093 0.0031843276 0.0034703652 0.0046741073 0.020470599 -0.009781825 -0.019286316 -0.011025587 -0.004923739 0.014565918 -0.010257174 -0.0069475863 -0.01308446 0.010629801 -0.007717077 -0.02043621 0.0023995948 0.019513091 -0.0037267404 -0.01264142 0.0033597092 0.00096334796 -0.022843044 0.02110824 -0.012500173 -0.008341291 -0.0028270872 -0.013708619 0.007990749 0.017818023 0.008923501 0.016478376 0.0073641795 0.0018171085 -0.00431066 -0.02131249 0.011523596 0.0032026346
wo -0.019447286 -0.010080195 -0.019743785 -0.012571752 0.008598402 0.015018273 0.010451515 0.008104357 0.012798887 -0.0027241488 -0.0039772107 -0.020340696 0.0007819035 -0.0045853923 -2.3044279e-06 0.015180996 -0.012317165 -0.007198018 -0.01678658 -0.009279431 -0.007047287 0.0059306743 0.009990842 -0.010602201 -0.008123868 0.0028691748 0.0095036 0.01058303 -0.008507865 -0.008741512 -0.010832666 -0.001514547 0.0035488557 0.0038866594 0.013495544 -0.0036507014 0.0010614729 -0.010672485 -0.0019532393 -0.016898494 -0.0001373899 0.0011889721 -0.01754493 0.017948925 -0.015373783 -0.019345075 -0.016421873 0.013008395 0.012705762 0.018426588
us 0.005613398 0.0014594579 -0.0041989572 0.017941708 0.00633378 0.0029567822 0.00064736884 0.00871799 0.006687252 -0.0006593397 0.0040797163 -0.006977954 0.012161375 0.008813644 0.003536478 -0.008795952 -0.005451028 0.010072723 -0.018539194 -0.0042068847 -0.0009677724 0.010877241 -0.010955658 0.015420911 0.00092830084 -0.0109151285 0.0046817837 -0.0057206606 -0.021843439 -0.008325521 0.0021683276 -0.018623611 -0.000902563 0.006888661 -0.00940231 0.009589952 0.0075003398 0.021971686 0.0053982222 0.0009995515 0.010509941 -0.00622956 -0.017671939 0.016487671 0.0046808254 -0.01923731 -0.012397965 -0.0121958265 0.013528164 0.010097804
definit 0.0118877385 -0.013643594 0.0019036928 -0.006221658 -0.009810961 0.010653848 0.0108040655 -0.0016531606 -0.020790244 -0.010162631 -0.0022273837 0.01217813 0.013786141 -0.015797818 -0.021011509 0.01505005 -0.002258955 -0.006609337 0.0066573564 -0.013879724 0.010368427 0.0025336007 -0.008717341 -0.0019145915 0.015773242 0.019394595 0.002641482 0.008952995 -0.014089141 -0.0011796155 -0.009138283 0.0015620262 -0.0050799837 -0.0062269894 -0.015798192 0.022878438 0.0076468885 -0.003730037 -0.0067099924 0.012891534 -0.009741731 0.004788362 0.0016544455 0.016870681 0.019927397 -0.0053943773 0.0057695173 -0.0061408095 -0.016257532 -0.005505852
staff 0.0029789116 0.013105585 0.02018447 0.017924488 -0.015172033 0.009265909 -0.009415607 0.002739384 -0.0033386333 0.013943514 0.006961666 0.0057676523 0.020441355 0.0018533571 -0.014119052 -0.011810419 0.015744494 -0.009833585 -0.01059654 0.0061600157 -0.0040406864 -0.00973551 -0.00018572906 0.0017310365 0.0074738567 0.012696256 -0.01241226 0.0051922235 0.010582071 0.0048459023 0.012733692 -0.010764645 0.010321638 -0.013949211 0.004825323 -0.015473125 -0.0040564514 -0.017520789 -0.0013469065 -0.012933051 -0.0052202987 0.0012475327 0.0057912525 -0.00315441 -0.010443992 -0.0120072225 0.0024206508 -0.010856573 -0.015381343 -0.0019172046
steak 0.014202381 0.011756713 -0.019703602 0.0059831054 -0.0116115045 -0.022244304 0.0031065205 0.0036577436 -0.018281784 -0.011745209 -0.006703467 0.010740293 -0.013804658 0.015681187 -0.0026038087 0.0029670456 0.021527447 0.010178697 -0.011844157 0.005191603 0.007395411 0.01568171 0.0048439614 -0.009821114 0.0056697438 -0.011350004 0.00039715838 0.008869823 0.0060593677 0.019274244 -0.013765066 -0.011932337 0.011196175 0.0040195193 -0.014981255 0.0048848055 0.0067123673 -0.0044804662 -0.007635515 0.008010669 0.022365147 -0.015767 -0.000517557 -0.0050351056 -0.0069987434 -0.001877174 -0.010144529 0.015346216 -0.008685713 0.006753308
say -0.00011181459 0.008662714 0.004600413 0.019331712 0.0024365212 -0.014591063 -4.7833742e-05 0.008444894 -0.01062207 -0.015429333 -0.012571238 -0.017570551 0.01419443 0.009133851 0.015436562 0.013951582 -0.00962141 0.0066274363 0.012571101 0.001045533 0.0064078043 0.014051976 -0.013354912 0.016935384 0.016829338 0.017508995 -0.01895548 0.011238502 0.0092638 -0.0021282742 -0.010995248 0.010210538 -0.0156449 -0.009580867 0.0053115906 0.019106863 0.019049514 -0.007556775 -0.016706083 0.017363982 0.015732089 -0.009412888 -0.016785728 -0.009660202 -0.002297327 -0.0061328607 0.0026167335 -0.0030895264 -0.003332149 -0.012371647
pizza 0.019429384 -0.009279373 -0.013570441 0.014871296 0.0059582326 0.012554637 -0.0063202744 -0.008078869 -0.00393049 -0.001535489 -0.02142198 -0.008184705 0.008150985 0.0142811565 0.011524138 0.0076986593 -0.005427425 -0.0025803428 -0.01371521 0.009056555 -0.011990125 0.007966453 0.0027229658 -0.013211453 -0.011088548 0.012114995 -0.020070255 -0.0031643426 0.0003908339 0.016810132 -0.012330535 0.0057568583 0.017243998 -0.012406682 -0.00985622 0.014249125 0.01269895 0.004677377 0.01844786 -0.000433672 0.008258264 -0.0052573085 -0.015823461 0.0063959765 0.011854781 -0.017579231 -0.00053199945 -0.0041644634 0.00505137 0.016667766
flavor -0.0044630882 -0.012021438 0.016022656 -0.014526099 -0.017414315 -0.007032571 -0.014845888 0.005057024 -0.0003499258 -0.004334286 -0.014718863 -0.0040314444 -0.0012191935 0.00798316 0.014701824 0.012964023 0.019288922 -0.017011166 0.014481317 -0.007261013 0.017879283 0.007253393 0.0108491285 -0.020164672 -0.01621939 0.017919296 -0.008062301 0.0043408736 0.008928306 -4.471609e-05 0.021522783 -0.00243917 -0.020964306 -0.013029403 -0.0039003182 -0.014165382 0.016693365 0.008325309 -0.015811164 0.014653068 0.021486323 0.010345221 0.014395733 -0.018959554 0.007629441 -0.018016053 -0.0071009803 -0.002780979 0.0024714204 0.0029074377
much 0.006331359 0.0047654854 0.011670802 0.014474966 -0.010668616 0.011746124 0.014188687 0.02515282 0.0042351265 -0.0061725257 -0.009328118 -0.005536195 -0.0014937271 0.02176954 0.0007570376 0.009388943 0.009845239 -0.016171327 0.0072060884 0.013823513 -0.0031334416 0.0078056995 -0.007965446 -0.013472412 0.019503 -0.005368197 0.011027571 0.0017147879 -0.008462947 0.006686703 -0.0059230896 -0.0044237482 0.00074094627 0.011503032 -0.004955394 0.00520465 -0.014170092 0.020515036 -0.015789198 0.011674516 0.011611551 -0.015956145 -0.0105721615 -0.015920011 -0.0032602132 0.014869299 0.019947803 0.0004371864 0.004859664 0.018461881
star -0.010434884 -0.0033700573 0.0070507205 -0.012614986 -0.018544123 -0.022855869 0.020307034 0.015100393 -0.014309837 -0.016126288 0.00063421647 0.0020949473 -0.0011816897 0.0031322695 -0.009537027 0.010106924 0.005401666 0.018703893 -0.025004175 -0.012882995 -0.01849561 0.0023954592 -0.012139138 0.008980647 -0.010785431 -0.011541314 0.008301572 -0.017944314 -0.00069367373 -0.014369814 0.02245561 0.017147101 0.0020404614 0.013062172 0.007493519 -0.00899164 0.02112692 -0.018958744 0.0179409 0.0040857634 -0.0036276265 -0.008743373 0.018066514 -0.010654092 0.02280114 -0.012626958 0.017033454 -0.0036472105 0.019666424 -0.0074237236
recommend 0.011605906 0.01754869 0.006199054 0.002466315 0.01132437 0.0132455975 0.018972294 0.02038294 0.010299944 0.016290756 0.01629717 -0.0034845343 -0.00093116605 0.0046558594 -0.00058770087 0.0027267756 -0.014895928 -0.017958276 -0.008944044 0.015695598 -0.0069255945 -0.012016532 0.013434578 0.0012282066 0.0062279496 0.008788339 0.005091297 0.0110340845 -0.0005960952 0.002009639 0.01909453 0.0046629887 -0.010784023 0.014186503 0.008729685 0.008951522 -0.00464982 0.0076364744 0.013796713 0.012439893 0.0049148477 -0.01852878 0.0007445943 0.0009852585 0.013230212 -0.019001704 0.020350955 -0.016594954 0.0141760595 -0.018985981
got 0.019919809 0.014113911 0.003847547 -0.0074670594 0.00018134333 -0.004332102 -0.009550449 0.017533107 -0.00089572376 0.008078641 -0.01655358 0.012497822 0.0025278998 0.0015113475 -0.020475052 0.009819007 0.017310163 0.016310673 -0.018907141 -0.018745916 -0.010641041 0.0020356951 -0.010998151 -0.01813678 2.8637802e-05 0.0027750707 -0.022282373 -0.009520542 -0.0035711634 0.014576718 0.005666818 -0.0026081551 -0.0173289 -0.0121909175 -0.00409203 0.019170249 0.013070084 -0.001082703 0.0050990344 -0.02222645 0.0014736416 -0.010841329 0.011929046 -0.0040209168 -0.0014260378 -0.01846963 -0.0014837331 -0.018524598 0.00096323533 -0.008754389
server -0.004238673 -0.0059731267 -0.016843164 -0.0032280784 0.0042262906 -0.012482841 -0.012459872 -0.0012002208 -0.0237092 -0.00061958015 0.009717482 -0.009963477 0.0080063995 0.010733016 0.015029606 0.012373248 0.02182685 -0.018619232 -0.02204379 -0.017144298 -0.014712187 -0.012583708 -0.010017735 -0.007143388 0.006266332 -0.0061613466 -0.020081934 0.007845928 -0.0036564725 0.01010905 0.016792167 0.014461436 -0.0035974144 0.00870449 -0.012673721 0.0077769547 0.01088587 0.021584596 -0.003933556 0.0030027796 -0.007924815 -0.005837286 0.015805123 -0.0075377026 0.0051418534 -0.018392503 -0.018692603 0.014818384 -0.00758407 0.009537714
chicken -0.0133825075 -0.0046455152 -0.015754761 0.014264994 0.013515665 0.006123093 0.020312808 0.0046769823 -0.0249103 0.01944575 -0.012624338 0.010783821 0.012840917 -0.0013672577 -0.017986003 -0.0015202009 0.016353287 -0.012539507 -0.003139922 -0.018676104 0.018810581 -0.0021256474 0.02575552 -0.013364171 -0.015406431 -0.017028606 -0.01196676 0.00792702 -0.005379999 0.019461833 0.008615283 0.006105006 0.0035267486 0.018237973 -0.007217668 0.01863222 -0.017248021 0.007881505 0.0011433875 -0.0022036042 0.018087357 -0.0072219823 -0.0046516545 -0.00035557567 0.0073899673 -0.006465906 0.013823154 -0.017590515 0.020577071 -0.00079081825
think 0.005316707 0.0064525264 -4.1969183e-06 0.0023954678 -0.005920205 0.006305214 0.0029440038 -0.0022774877 -0.021525439 -0.0195523 -0.0010206971 -0.01517323 -0.0007375271 -0.0075691734 -0.019107275 0.0032992924 0.014558267 -0.0035638283 -0.018572822 0.00412098 -0.00024303213 -0.008722991 0.002147836 -0.0023793585 -0.0039128116 -0.018966056 0.013026564 0.0062543713 -0.009051529 0.015330512 0.002384441 0.0139248185 -0.004620669 0.01622217 -0.0020956798 -0.009450075 -0.008446623 0.020399163 0.0028749313 0.00024903158 0.020132674 -0.014243073 -0.0033562686 -0.0165335 -0.0075557153 -0.016785787 0.008627901 0.0030765098 0.014269812 0.004408038
made 0.004507626 0.01186885 -0.002953371 0.005463401 0.01898572 -0.0053361896 0.016078137 -0.006809154 0.006488666 0.010335832 0.00767814 -0.025723875 0.0012783332 0.008418819 -0.014341096 -0.0118949115 0.01654088 -0.012433913 -0.018084003 0.012628806 -0.01385662 0.021983601 0.007844616 0.0072960556 -0.0018561074 -0.0107017085 -0.021332277 -0.003599645 -0.016298365 -0.005225259 0.019447243 -0.016412519 -0.01543164 -0.008764463 -0.015862709 -0.013001867 0.00022854842 0.02092025 0.018762417 -0.013404832 -0.011452146 -0.00682237 -0.018703455 -0.010620995 -0.0025737353 0.006710054 -0.014235236 -0.0017654572 0.009523249 0.0097742975
want -0.0037691672 -0.019986618 0.011589375 -0.012829998 0.011055909 -0.0010201717 0.02114662 0.009665746 -0.009598303 0.014089034 -0.015931081 -0.021688787 0.009344158 -0.0033584451 -0.010957971 -0.0023684725 -0.017066559 0.001787199 -0.0086486135 -0.009713632 0.0054203644 0.013032316 0.018946659 -0.017999671 -0.005865868 -0.017051661 -0.020598033 -0.009386133 -0.00829835 -0.015523797 -0.008318189 -0.005546002 0.010608346 0.0047772545 0.013913853 -0.012229137 -0.0071260934 0.00014620255 0.019583728 -0.0007062168 0.007130859 0.0005803832 0.005755119 -0.019069891 0.014985506 0.011017479 0.011091902 0.004815651 -0.011778553 -0.008570272
first 0.016904177 -0.00054102787 -0.018583149 0.008766608 -0.011224661 0.010104449 0.013126408 -0.0055221654 0.0013393959 0.011591327 -0.009266669 -0.0067486824 0.019734336 0.019581892 -0.020239096 0.01644636 0.022514405 -0.0046674954 0.0010602811 -0.0077973045 0.017978033 0.0017603706 0.015522439 0.017445246 0.010924607 -0.01368523 -0.0059497943 0.0013135766 0.0004059875 0.0063609583 0.020519068 0.008143463 0.018277891 -0.015993716 -0.01343429 0.0068059075 0.009217814 -0.00034565374 -0.011818299 -0.0084256865 -0.014539781 0.017501328 0.00779447 -0.015914774 0.01234805 0.008967445 -0.011032063 -0.014913974 0.0055784113 0.017609742
dish -0.018748473 0.0002974895 -0.013037271 -0.0024976933 0.007858214 -0.014864846 -0.002128587 0.0075050676 -0.019078894 0.0152136665 0.007032438 -0.02251296 -0.0026048182 0.008050224 -0.018677766 -0.012529834 -0.013377046 -0.009750905 0.010542376 0.01171405 0.0065840883 -0.013217652 0.01766184 0.007882099 0.004648835 -0.017281992 -0.0072498983 -0.0010543886 -0.020970825 0.0061225505 0.0035112416 -0.016189998 -0.019376509 0.013813522 -0.019649591 -0.006425485 0.013487339 0.0006373024 -0.0031006911 -0.01291536 0.0024390374 0.008969102 -0.011519643 -0.01044744 -0.0012973235 -0.00905923 -0.015466906 -0.024190592 0.01985374 0.015373104
tri -0.008719102 -0.018966042 -0.0035436936 -0.008304251 0.019161312 0.0020430775 -0.008927136 -0.0019484565 -0.024821678 0.00446651 -0.010004911 -0.009794071 0.01232601 0.016569972 0.0071622445 -0.012911726 0.015702281 -0.018276483 -0.01938231 -0.019101977 -0.0037234658 0.0038602774 -0.0026800537 0.0023326569 0.021020513 0.014231205 -0.004103253 0.016760357 -0.0012434501 -0.0032524627 -0.010869516 0.01228919 -0.019631976 -0.0020421457 0.013252739 -0.0018456517 0.004779735 -0.013906946 0.011710102 0.012486754 -0.0152727105 -0.008594948 0.01627479 0.005561813 0.0069512012 0.000935499 -0.018838307 0.016660756 -0.0003442297 -0.010654441
salad 0.0056874156 0.0017139117 -0.011445083 0.010927023 -0.0036460916 -0.016809642 0.017313907 0.018024059 0.013239827 0.0026093812 -0.0006776945 -0.020450732 0.0107385935 0.02007841 -0.0034033568 -0.0023912895 -0.004772732 3.3653207e-05 -0.020934327 0.008499039 0.0027289514 0.02198332 -0.008168222 -0.011484352 -0.00959495 -0.014227144 0.0035852382 0.008848895 -0.0020909526 0.008370669 -0.017015986 -0.002930455 -0.017212328 0.0074866735 -0.0075730393 0.021219034 -0.005539179 0.015081241 0.010041664 0.0007622714 0.0034645866 0.014542023 0.004916233 0.016470123 0.0142330425 0.011305158 0.011176113 -0.01855417 -0.00821861 0.0019328608
way 0.00096741715 0.0043648332 0.0021466988 0.014322005 -0.008258382 -0.0027891397 0.016265187 0.009031342 0.004447952 0.009378584 -0.004408173 -0.020148255 0.0073095155 -0.016937317 -0.0064745243 -0.01798232 0.0011515252 -0.015281271 0.01043194 -0.011891035 0.020128863 -0.0158322 -0.005030924 0.0026414425 -0.0034255339 0.0028256467 -0.009856829 -0.002869204 -0.015024555 -0.019443061 0.013817149 0.000570976 0.011533279 -0.013268144 0.005719791 -0.017077602 0.01691571 0.012984271 -0.010591549 0.014911695 -0.008172313 -0.018429168 0.0031850585 0.006337257 -0.010880139 -0.0176376 0.019098721 0.00040970114 0.0048407237 0.0045284885
burger -0.0061887256 0.003996177 0.004635914 0.019526426 -0.010285749 0.00041294214 0.015355321 -0.008313732 -0.022789871 0.01810276 0.011516485 -0.012338521 0.013315668 0.0028459043 -0.012216232 -0.001332854 -0.006738233 0.013427244 -0.00094033824 -0.0194133 0.00027766172 -0.0025067425 0.018171458 -0.0038004876 0.018649124 0.004383192 -0.010701522 0.015700297 0.0018334376 -0.007275445 -0.009316923 -0.0070917257 -0.011979379 0.008420221 -0.020713933 -0.008006347 0.008648898 0.0019372808 0.0143865 -0.0090446565 0.004113735 0.0033057122 0.011450304 0.003469132 0.026753489 0.008053324 -0.013822164 -0.0065132477 -0.013243981 -0.011089263
better -0.004127717 -0.019442372 0.019602917 0.003771854 -0.0008146652 -0.015343562 -0.014634387 -0.015014181 0.012893075 -0.0044908645 0.007167918 -0.013565179 0.021314638 0.008556954 0.0004345264 -0.0065911384 0.004903254 -0.0041186637 0.009767762 0.006593326 0.0020487108 0.01016209 0.011897518 -0.014766432 0.020715902 0.003816784 -0.013784032 0.016067782 -0.0065280357 0.017107537 -0.0011392913 0.012947138 0.0037666066 -0.007535846 -0.009514621 0.022471933 0.0052203266 -0.010834923 0.0025753374 -0.0059528127 0.0068492666 -0.017400429 0.015369451 0.0025185987 0.022669487 0.009245376 -0.0082305195 0.0039426764 0.002386654 -0.020558445
menu 0.017087607 0.019247785 0.020371718 -0.007867496 -0.016064717 0.005190258 -0.012330348 0.022961672 -0.00012957027 0.012260979 0.009659906 -0.00401938 -0.0022815557 0.0030329174 0.017464185 -0.012569987 8.5202395e-05 -0.0037304217 0.003976521 0.009781217 -0.007739902 0.011006757 -0.0033267126 0.0043844576 0.020519555 0.007364114 -0.012395994 -0.008195116 0.010477737 0.020280613 0.014411917 -0.007816166 -0.0060775992 -0.01044605 -0.01175301 0.01102137 -0.010986474 -0.011763796 0.019202057 0.016151683 0.020967953 0.0018902842 -0.01767318 -0.015423592 0.011376266 -0.01919967 -0.013991847 -0.00036284412 -0.0007988991 -0.019115007
fri 0.013340285 -0.017960126 -0.014357189 -0.0040128687 0.004816996 -0.0060646445 -0.007523304 0.018341335 0.012567677 -0.014038679 0.017511819 0.01070692 -0.013822192 -0.0026845413 0.0067921486 0.015207375 -0.0044984906 -0.0131912865 0.0040499847 -0.020175178 -0.011080825 0.00038979374 0.015830565 -0.01281266 0.013059829 -0.0007961443 0.0024867698 0.011510816 -0.0014871651 0.016030565 0.0014124672 -0.018007174 0.01652481 -0.008202949 0.007388212 -0.0041518486 -0.012987996 -0.01110841 0.0118272975 -0.003529705 0.0070289443 -0.019473925 -0.010074152 -0.012343571 0.02394424 -0.017312547 0.010763116 -0.0056306575 0.004245445 0.017094528
alway -0.0071417526 -0.0136500755 0.002195562 0.015418017 0.019179486 -0.011441386 0.007893313 0.015184477 -0.014637949 0.014478707 -0.014798384 2.4901363e-05 0.01073452 0.009872605 -0.011096251 0.0068948297 0.017384252 0.018127736 -0.024076931 0.008692014 0.009859966 -0.000511481 0.0227863 -0.009530928 -0.0006642994 -0.012818861 -0.009909681 -0.0016257905 -0.011236764 -0.009869119 0.015310063 -0.011634896 -0.0148750795 0.017294519 0.017243551 0.011702684 0.0014157797 0.0025591752 0.00042201756 0.011550303 -0.009588983 -4.802727e-05 0.008518211 -0.004406722 0.008471874 0.007812138 0.020183835 0.0011578412 0.023086892 -0.012535275
well 0.010345161 -0.0071525485 -0.008109235 0.0019776255 -0.006923508 -0.015463283 0.0085455645 0.022202794 -0.018106522 -0.017250597 -0.008640189 0.010978034 -0.018496444 0.020603245 -0.00251604 0.006027397 -0.00064404256 -0.011036495 0.0006004545 0.0098614255 -0.013927216 0.00037793544 0.008093228 0.0072254525 0.017833509 -0.0072006946 0.012326582 -0.0124195255 -0.009039066 0.019106053 0.012802064 -0.01798371 -0.00555534 -0.01653644 -0.005359581 0.014811816 -0.013083624 0.012613934 0.014447343 -0.009454338 -0.015781298 -0.0065355767 -0.00495133 0.0068472466 0.024885988 0.0045884675 -0.0032495244 0.0026893152 -0.010239642 -0.0026848463
feel -0.0029117488 0.019736605 -0.010057841 -0.0151287215 0.0065880287 -0.00029644178 -0.011316264 -0.0044806437 -0.009716787 -0.004744562 -0.020490434 -0.014293412 -0.0038846615 0.014947461 -0.00029851578 0.004586317 0.003645708 -0.005576008 -0.0017516402 -0.0027391817 0.012425737 0.0031005482 -0.010524803 -0.00019902192 0.024164448 -0.010239172 -0.014502471 -0.0070890402 0.011284964 -0.00066013145 0.021841351 -0.018443085 0.015424853 -0.01728097 0.015351895 0.008894574 0.007911653 -0.009919321 0.019828552 0.0096487915 -0.0053075827 -0.022059456 0.014223896 -0.011012509 -0.008759455 0.005630151 -0.00896019 -0.019501766 0.024892533 -0.00431762
meal -0.0024516224 -0.007899045 -0.008470092 -0.009699907 -0.009723504 -0.015085576 -0.012666752 0.025108239 0.006992248 -0.006695905 0.002732802 -0.021016028 0.017016629 0.01827505 -0.00011983349 -0.012117678 -0.0030642427 0.010930936 -0.012591707 0.0028766226 0.019084413 0.012276715 -0.0045340206 0.009841533 -0.0023106902 -0.011875534 0.010789797 -0.019972933 -0.0072655557 -0.001950236 -0.014472951 -0.0033069116 0.009610332 -0.008595799 -0.01669735 0.01679872 -0.0045579523 -0.014096722 0.0030516183 -0.0023819022 0.019213784 -0.0007076874 0.016345106 -0.01998661 0.015915938 0.012581392 0.0030993966 -0.010026358 0.006900245 -0.0026631975
fresh -0.015905496 -0.013343337 0.0028890034 -0.0047106636 0.020104742 -0.005953784 0.015234554 0.009027315 0.01145109 -0.018089205 0.0023972103 -0.0069379797 0.0056148907 0.00035797895 -0.014572032 0.019739633 -0.002821881 0.0046319193 -0.01787565 0.004371854 0.02074071 0.0005798745 0.017971694 -0.0012253553 0.01882265 0.019397981 -0.003535815 -0.0050985226 -0.023271376 0.020453889 -0.0031982933 0.0030176125 -0.005605734 0.017925978 0.01477017 0.0064988923 0.0074275336 0.014454604 0.006491248 0.010658071 0.0038396139 -0.006221264 0.01136034 -0.006904245 0.0015117326 0.018148063 -0.01755451 -0.010313771 -0.0021511563 0.010770145
tabl 0.016522083 -0.012736805 0.012404885 -0.0010780153 -0.017910998 -0.009177472 -0.0007993498 -0.0042459215 -0.006209532 -0.010131552 0.00974249 0.014187525 -0.0023446374 0.007918368 -0.002875508 -6.128125e-05 -0.011407539 0.004374663 0.0027245888 0.01078271 0.013634462 0.0102795325 0.014273385 -0.01617936 -0.00025573667 -0.011478145 0.010931933 0.013883999 -0.012965758 0.0031436814 0.011966349 0.0030619225 -3.0849595e-05 -0.012069643 0.017933594 -0.011486056 -0.010400486 -0.00967857 -0.011106436 -0.009127915 -0.015804468 0.0005932215 -0.007254302 -0.004750551 0.018326629 0.007788178 0.004301965 -0.006016731 0.023412189 0.00015685702
worst 0.010583174 0.018004188 -0.019681336 -0.018599834 0.020489464 0.00299315 -0.001629088 0.012414871 -0.012116173 -0.0123393 -0.018522127 0.012164285 -0.003614668 -0.014963286 -0.013085979 0.013724451 -0.00285747 -0.011810836 -0.006220848 -0.004824818 -0.0062622414 -0.0025836474 0.01125523 0.0023732544 -0.0047422713 0.0053611686 0.008694481 -0.019249227 -0.017728787 0.012852855 -0.016594492 0.00078962895 -0.019215621 0.01809422 -0.01028546 -0.011099749 -0.0016713 -0.002154804 0.016601566 0.016702738 0.0011168993 0.004396455 0.009547635 0.00029423312 -0.0077428147 -0.00074410485 0.0040697684 0.014615164 -0.004516594 -0.019852389
qualiti 0.010913964 0.019526886 -0.013668912 -0.0014988736 -0.009421791 0.010064339 0.021726884 0.003597451 0.006709577 0.013675974 0.0071234396 -0.019421954 0.007391903 -0.0020302383 -0.005954527 0.01172511 0.000140393 0.021106891 -0.005220288 -0.0014659625 -0.0039913883 -0.014998486 -0.016521813 0.009025133 -0.010267216 0.0061346204 0.0029275843 -0.015688682 -0.009845468 -0.010970713 -0.015840778 -0.0007004473 0.01790959 -0.012688344 -0.010513098 0.019430963 0.02043639 0.020777546 -0.017885653 0.008237255 -0.010977402 0.0132922 0.012778486 -0.0068278816 0.019382233 -0.0155102685 0.010000147 0.00680032 0.015317687 0.011344625
bland -0.004930259 0.007881324 -0.0114574535 -0.01320828 0.006656763 -0.021835847 0.0017366044 0.006655735 0.011997426 -0.013164874 -0.0066685057 -0.012096942 -0.009254866 0.0001691728 0.008206989 -0.008750303 -0.00086845376 0.0189359 -0.0065696645 -0.009332325 0.015146484 0.004712081 0.003056039 0.018086445 0.0192223 0.007338947 0.0043172725 -0.0057436624 0.013064731 0.0109150475 -0.009580133 -0.012975815 -0.0029981628 -0.014534921 0.0048565925 -0.0151593415 -0.0013442168 0.007797966 0.008055703 0.004218747 -0.015080808 0.0054681646 0.011048537 0.006834258 0.021357615 0.0034919544 0.013324819 0.0141979465 0.0011526163 -0.0019505869
went 0.0045899916 -0.014614864 0.012040777 -0.010578057 -0.0056535127 -0.0071357153 0.018749533 0.008573411 -0.005389486 -0.0053323903 -0.0056067714 -0.0056120204 -0.008888396 -0.007490547 -0.0009914937 0.010207902 0.005549741 0.014228127 -0.0025990298 -0.008573102 -0.01504437 0.014188471 0.017877722 -0.013059205 0.011752648 0.019338965 -0.014435074 -0.006795019 -0.021592133 0.0066097863 -0.005602691 0.0037106017 0.017414756 -0.015779598 -0.02046338 0.006174725 -0.0149329845 -0.017403262 -0.017486429 -0.002363367 0.00050407427 0.00013803341 -0.0025649935 0.018580694 0.02286651 -0.012589811 0.01811062 -0.020734727 0.00012352117 0.00486057
thing -8.054482e-05 -0.007673265 0.0016771193 0.001588894 -0.01775116 -0.012994822 -0.0136518935 0.011507331 -0.005455212 -0.01408253 0.009891229 -0.002802958 0.0066634556 0.012270584 -0.009904857 0.016156765 -0.0136749195 -0.0056965393 -0.01944394 -8.122891e-05 -0.014500281 0.0204717 0.014843215 -0.015624452 0.014910421 0.0137663735 -0.01682833 0.00793209 -0.019047948 0.018843217 0.0112281805 -0.0009856174 -0.019868067 -0.00067103136 -0.002566978 0.004546033 0.018932905 -0.004599909 -0.015729602 -0.019707173 0.00092876906 0.0014680803 0.00024088341 -0.0044390876 0.022890594 0.0003006528 0.013520172 0.0054132557 -0.011455338 -0.004821643
sushi -0.015882215 -0.013465831 -0.0055612554 0.012486983 -0.0010768416 0.014502961 -0.0017581821 -0.006223243 0.0036674256 0.0048520598 -0.0021705306 -0.008712244 -0.010639742 0.009307418 -0.016374726 -0.016945347 -0.016025223 0.017941078 0.0029797407 0.011943673 0.020336198 -0.012198777 0.012332121 0.004818356 0.015232984 -0.0065147514 0.016888158 -0.012809796 0.009948333 0.014339921 0.00086042593 0.0095970305 0.011543797 0.004648752 0.013418013 0.008041654 -0.0010329805 0.016183605 0.0107763745 -0.008644052 0.0062453197 -0.0015490514 0.0100464495 -0.010899533 -0.0020253926 -0.0015444785 0.008408626 -0.015630653 0.018826537 -0.0064149816
buffet 0.011536588 0.005559572 0.014007005 -0.0095064435 -0.0056860493 0.0035884879 -0.0037408534 0.01559717 -0.015400861 0.00581299 -0.0028621508 -0.003844257 0.0059193596 -0.0035390418 -0.00994993 -0.016546672 0.006392341 0.0113341315 -0.015200525 0.01661869 0.008687943 -0.008381533 0.0011571241 0.0073452117 -0.011796203 0.0042981445 0.009356503 0.0115968445 0.007884418 0.0076243156 -0.0037847257 -0.012983283 0.015195925 -0.013386903 -0.0048380517 -0.004349456 0.013945896 -0.011398325 0.008237779 0.0023921845 -0.005660173 -0.017419543 -0.015750209 0.0071886843 -0.014500747 0.011633268 -0.005576551 -0.0206822 -0.0078076706 0.015186804
enough -0.0033677933 0.013121879 -0.017919281 -0.018868167 -0.0094550885 -0.0015922964 -0.012647667 -0.014240576 -0.021929894 -0.00046263816 0.013303717 -0.020675343 -0.010010103 0.00421203 0.0052849865 -0.015641008 0.018105587 -0.01545634 0.0046292264 0.01692233 0.011442898 0.015060111 0.021014037 0.00582342 -0.01161551 0.012083377 -0.01920518 -0.012699806 0.008285346 -0.015398783 -0.009901166 -0.008311276 0.0051206537 0.011853922 0.002098088 0.013424564 -0.0038507117 0.009930873 -0.012581483 -0.005401345 -0.012342307 -0.0012404002 0.009543764 0.009360987 -0.003635257 0.0037823902 0.016277643 -0.014189732 -0.004562514 -0.0013617651
serv -0.008969121 0.017596168 0.016256113 0.018412624 0.019802148 -0.020966552 0.0011291009 -0.011153922 -0.013741891 -0.017103544 0.0052462346 -0.00344795 -0.012792871 0.016902255 0.00053745805 0.0016483751 -0.0049072765 -0.005758705 -0.010014073 0.013093081 0.0047400277 -0.007706998 0.013515213 0.0009202621 -0.0026814055 0.015800336 -0.010300608 0.013621048 -0.012190063 -0.01409893 -0.0069334786 -0.008651775 -0.003243838 -0.0020969368 0.008636717 0.014382199 -0.0021411197 0.008551841 -0.0020971487 -0.00025141524 0.00024885207 -0.006257928 -0.009844356 -0.008348794 0.0065987757 0.0035440098 -0.01885556 0.009106461 0.00020662363 -0.0065085553
select -0.008906796 -0.008696368 -0.00952942 -0.01984252 -0.0012482153 -0.017886488 -0.008260952 -0.012328106 0.017610375 -0.002179633 -0.016698569 0.009169908 -0.015749129 -0.003223321 0.004588302 -0.01455498 -0.016495181 -0.013220604 0.012836728 0.017449826 0.008324211 0.0061595887 0.010698948 -0.009105742 0.021913158 0.013530457 0.0073523247 0.017176978 -0.0186434 0.0017867564 0.01861047 -0.0025343644 -0.014736536 -0.00408131 -0.0068639894 -0.00390709 -0.0027236359 0.015481309 0.00087223476 0.0076528606 -0.006278714 0.015943302 -0.01299958 -0.019057872 -0.00546937 -0.014312587 -0.009752252 -0.00044622886 0.006075082 0.003809746
perfect 0.010388484 -0.0030113424 0.0048419903 0.0004894977 0.016503157 0.013062106 -0.0018629085 0.0059295744 -0.015674435 -0.009007432 -0.015366521 -0.0030542165 -0.008924644 -0.0075962273 0.0013828689 0.006265237 -0.016233798 0.0041430085 0.006629555 0.006690899 -0.005271313 0.021276448 0.02271155 -0.0013414951 0.0041908426 -0.018582685 -0.01179895 -0.0015433518 0.0046411906 0.0007117503 -0.01591787 0.010619821 -0.016376723 0.018351195 0.009577847 -0.010988559 0.0069330023 0.016659547 -0.010720935 -0.014752362 0.020902371 0.0029430457 0.01992728 -0.019861208 0.0020126204 0.014336161 -0.0023498395 -0.0060645603 -0.011666442 -0.011852133
night -0.012794995 0.017881695 -0.0022853652 -0.017050264 0.016649997 -0.009168682 -0.00030082744 0.0029010202 0.0019446277 -0.0091095725 -0.0019190729 -0.008890104 0.018694907 0.014896107 0.00029517472 -0.010779094 0.008572725 0.0031446563 -0.016613279 -0.013658663 -0.0057607633 0.0074043963 -0.0118380645 -0.010682702 0.018848805 -0.006705553 0.014022299 2.1680162e-05 -0.014508471 -0.009523424 0.00043700123 0.008417632 -0.013824983 -0.009988334 -0.015819136 0.016594639 -0.0033169196 0.0090406295 -0.0017104938 -0.016988784 0.00074400933 -0.0004826566 0.007636787 -0.017188007 -0.0074799927 -0.012442171 0.0063377637 -0.010954275 0.005055167 0.008016489
awesom 0.009112088 0.0047565857 -0.0053410735 0.0011502182 -0.0104338555 -0.015333054 0.019081587 -0.0052591516 -0.021632148 0.008275731 0.015810557 -0.0024974982 0.0052150525 -0.0064873453 -0.009073501 -0.017116925 -0.014000075 -0.01772923 -0.014897195 0.015583821 0.01908355 -0.0018197474 0.0025275904 0.015117383 0.004185738 -0.010321082 0.003774409 0.0025393404 -0.009782763 -0.010022966 0.02050971 0.014981569 -0.01796103 -0.010817804 0.0015808402 0.0036316374 -0.015730182 0.019275578 -0.009946722 0.008177055 0.019935789 0.0016265772 0.00803601 -0.0053198477 -0.015706759 0.0010916708 -0.0017823409 -0.021427803 0.015928213 -0.014971573
enjoy 0.010899369 -0.00880392 -0.017986098 -0.018756293 0.013535662 -0.01408374 0.01284182 0.00117397 0.015173265 0.015112304 0.017603708 0.013231592 -0.014578198 -0.0181306 -0.012551413 -0.000119671764 0.012479922 0.008405017 -0.008718824 0.0078038387 -0.006909289 -0.011125156 0.013524658 -0.02073799 0.0042881933 -0.009541003 0.012842294 -0.008586812 0.001852982 -0.011920448 0.020970594 -0.0115481615 0.0056461017 0.0076572984 0.01569554 -0.008008981 -0.0070787407 -0.011645919 0.014124429 -0.011111141 0.012702027 -0.0031686346 0.014686449 -0.01201756 0.0056589497 -0.00019858983 -0.016341578 0.014278469 -0.0009260035 0.012566717
fantast 0.0005058291 0.009718957 0.004608456 0.017758103 -0.016618283 0.015368489 0.018371012 0.00395834 0.0072648246 0.007954288 0.0076456196 -0.007309216 0.006227051 0.0019185804 0.009065855 0.01759025 -0.014649835 0.00050359446 -0.01927915 -0.004446292 -0.018149186 0.0073524374 -0.0015917921 -0.0022194642 0.014091472 -0.016164524 0.0015598681 -0.005490111 -0.009218156 -0.014645335 -0.015410558 0.016640501 -0.015560793 0.010172529 -0.008329445 -0.0011171286 0.00630348 -0.01683592 -0.010592372 -0.016743056 -0.017458929 -0.010008351 -0.0065405406 0.0010239589 0.0011740312 -0.015854048 -0.0070697363 -0.0064921053 -0.011408571 -0.013063934
know -0.0055215405 -0.015898999 -0.016682921 -0.015657837 0.007063364 -0.016878268 -0.0058733253 0.016402451 0.012177715 -0.012653613 0.012800107 -0.017863994 0.000200187 0.01390146 -0.006459218 0.01864642 0.0008943882 0.010028672 0.0109115355 -0.018345714 -0.011790175 -0.012946237 0.00038794536 -0.014871923 0.001840964 -0.016019108 -0.00024985397 -0.001155895 0.0108853625 -0.01780756 -0.0060594804 0.011377031 0.017753892 -0.0030430837 0.00036720265 -0.010590273 0.0027749254 -0.015370582 -0.014489531 0.0013639731 0.0013003693 0.0102580665 -0.01991262 0.0033397325 0.0061566723 -0.010063859 0.00037169206 0.010152402 -0.011582277 0.00090935855
manag 0.0080325045 0.00338151 0.006495204 0.015848545 0.014127091 0.0038235781 0.017861463 -0.011534106 0.012088003 0.008563182 -0.01304354 -0.011401303 0.01432803 0.012553774 -0.021009082 0.0040142983 0.001069759 0.0025457928 0.01035857 -0.016230475 0.019452916 -0.017164372 0.015495329 0.018463025 -0.0052361134 -0.018520435 0.010664877 -0.019232813 -0.020401008 -0.0008873205 -0.011162743 0.01685548 0.014157711 0.0025226409 0.014580959 0.022574952 0.011991911 0.009600694 0.0125185205 0.01127086 0.0121578565 0.011744644 -0.014691818 0.017676782 0.021821085 0.019179875 -0.017598396 -0.009207002 0.0025250206 0.007937769
next -0.016546268 0.00025428386 0.012236903 0.018579807 -0.0054738494 0.00035851108 0.014305137 3.601877e-05 0.0006331565 -0.01845908 -5.490169e-05 0.0064403997 0.0100068245 -0.018668786 -0.011661885 0.007095743 0.0058258413 -0.008616497 0.007411257 0.0052030324 -0.015710276 0.021992335 -0.012170155 -0.0070724906 0.021356948 0.0027696008 -0.013026532 0.0010210567 -0.011551739 -0.013259104 -0.014043574 0.009308883 -0.019574476 0.009643723 -0.012661235 0.01363207 -0.007887027 -0.010200468 0.014059654 -0.018951435 0.005176461 -0.005873318 -0.013483193 -0.015691005 0.018385584 -0.0088527175 0.009559123 -0.021848619 0.0072021396 -0.0046897
everyth -0.011365446 -0.0052162274 -0.016445756 -0.0070670187 -0.004326994 -0.0077000977 -0.008555715 -0.015109943 0.007326111 -0.0021248797 0.0110885035 0.003472502 0.018380791 -0.0062789535 -0.019176284 0.003405165 -0.016045146 0.0131501425 0.013440865 -0.0008920788 0.015907751 0.01964541 0.011923958 0.009872986 0.020499201 0.002672721 -0.018593526 -0.017777963 -0.006503853 -0.0008567143 0.018790174 -0.019416017 -0.0066949665 0.019704962 -0.004135744 -0.015794093 0.0054553715 -0.010772547 -0.009307723 -0.014197048 0.002542071 0.013489838 0.008845268 0.01655746 0.022953656 0.009114544 -0.011714708 0.011905355 -0.01666211 -0.009934133
still 0.016045783 0.015889306 -0.010421141 -0.01683743 0.017033326 -0.010954921 -0.0056668725 0.018273305 0.00714312 0.008312521 -0.0038524864 0.013596736 0.017888842 0.014784204 0.017231615 -0.010536611 0.0046164505 -0.0025305063 0.008635901 0.017126553 0.010332749 0.010062723 0.01695506 0.011059257 0.0022119356 -0.016382212 -0.0062830015 0.017037677 -0.014034488 0.0024998502 0.011211539 -0.014493836 0.01519663 0.003945084 0.002837573 0.019189386 0.004669529 0.0028593019 -0.01725449 0.01768239 -0.016553896 0.015623898 0.0100620175 -8.0221675e-05 -0.010191512 0.018918343 -0.0022538893 0.008347113 -0.0032471179 -0.010065426
sauc 0.0006126039 -0.016142307 -0.013036262 -0.019295488 0.011556696 -0.0022623113 0.00035655574 0.014347163 -0.008120008 -0.014259381 0.0042815288 -0.015245002 0.0021257526 0.019936783 -0.0034266848 0.013465855 0.011296058 -0.006358478 -0.015038952 0.016082209 0.0045545073 0.0014702717 0.005719223 -0.010912073 0.009682509 -0.006170941 0.0061603733 -0.010453793 -0.005330267 0.008517815 -0.01249301 -0.0063872025 -0.019471 0.0042233034 0.0017587777 0.007583999 0.0036781156 0.0014532456 0.0061825207 -0.0037837133 0.015057384 -0.006884386 -0.009602131 -0.010563811 -0.013750839 -0.015919482 0.0048194653 0.0051128906 -0.008599228 -0.019920075
slow -0.011678978 0.009219892 -0.0182343 0.010138746 0.013030995 0.010035346 -0.013789028 0.008416268 -0.013392718 0.018646952 -0.010180796 -0.0070110704 0.011390375 -0.0013074313 0.009221264 -0.0074821035 0.0113558965 -0.019579086 0.009995879 -0.004070475 -0.011292464 0.0014576248 -8.571255e-05 -0.0022759673 -0.0014706929 -0.01910835 -0.016910058 -0.014651564 -0.01983109 -0.00862043 0.019625176 -0.004008056 -0.016412064 -0.011221027 0.006273118 -0.003561169 -0.0022548342 -0.00809563 0.013210949 -0.016928116 -0.0136516085 0.014454015 -0.014326924 0.0044425065 0.004294449 0.020286161 0.008576131 0.0025914635 0.0074339393 0.00424249
give 0.0045609735 -0.005909346 0.008146343 0.012218591 0.018209232 -0.0043007834 -0.0011394955 0.015648315 -0.02066251 -0.0005426389 -0.015009376 0.0071421247 -0.01718098 0.006879532 0.017601784 -0.0040205484 -0.01615983 -0.015839597 0.003462235 -0.01182715 0.013180584 -0.00011844572 0.018730788 -0.0018250624 -0.01118583 -0.0117180785 0.00021240214 -0.010693979 0.011195986 -0.007274231 -0.0097667845 0.0013631979 -0.010422627 -0.015832402 -0.01208331 -0.0017280818 0.0014694881 0.008150118 0.014637499 0.012632595 0.013831628 -0.0004969025 -0.011527133 0.018295422 0.0027192242 0.00935726 -0.0029658997 0.010292955 0.012568915 -0.01496015
meat -0.005095173 0.0005422413 0.0047787908 -0.019002037 0.010718766 0.0027398705 0.0015877412 -0.0027045293 -0.019407557 0.016016604 -0.01890403 -0.01835944 0.010091826 -0.015789548 -0.008118156 -0.0028547088 -0.0012766815 -0.012751467 0.0039778473 -0.00037816074 0.00780324 -0.00024200836 0.017776098 -0.02037917 0.014396115 -0.009795068 0.0010160247 -0.014696712 -0.008681285 -0.012418438 -0.004851537 0.018794306 0.003741084 0.0042042737 -0.014002068 0.014047482 -0.014701158 -0.0036387558 -0.01168998 -0.014384498 0.007704328 -0.00763309 0.0051089427 0.007900341 -0.0067587397 -0.0032742342 -0.004679853 -0.022482509 -0.016979959 0.0017309771
terribl 0.009098785 0.0004826983 -0.009753214 0.0073523056 0.0038683463 -0.020239642 0.015354821 0.017366929 -0.017110465 -0.0014129374 0.011228449 -0.00668432 5.1564573e-05 -0.008375277 0.011632303 0.014703099 0.0050335675 -0.009428764 -0.0053498903 -0.009139776 -0.019780302 0.016656127 -1.01953465e-05 -0.0018644138 0.015264997 -0.018073782 0.0119137 -0.015880933 -0.012289949 0.010398366 -0.0062629962 -0.007000744 -0.013335796 -0.007362172 -0.005783906 -0.0070047714 0.019093504 0.019325444 -1.1128861e-05 -0.0015080667 -0.0103558125 0.015583338 -0.009826369 0.011800264 0.020666955 0.011540807 -0.0015695931 0.009948373 0.0154811395 -0.0082167275
probabl 0.0010796925 0.013276475 0.01192397 -0.0009307857 0.005398872 -0.015268045 -0.017444976 -0.0075678597 -0.013049167 0.0010033565 -0.008833965 -0.0030347214 0.01618287 0.020109871 0.015608879 0.005328741 -0.0040188623 0.005307301 -0.007841065 -0.01926789 0.0140312575 -0.015755096 0.010099602 -0.008621532 -0.009622682 -0.001735131 -0.014164155 0.016721005 -0.015593909 -0.01762662 0.012540789 0.008597754 0.008629173 0.0056021702 -0.008456545 -0.008459594 0.0042433613 0.017590143 -0.010082004 -0.0058156503 0.0057197222 0.012260161 -0.013142028 -0.009139675 -0.0022561885 0.0029606814 0.01103212 0.009701385 -0.015588373 0.014345526
dine -0.004509856 -0.0054143653 -0.017254943 -0.011781614 0.01933496 0.0030753694 -0.014298922 0.009136709 -0.017729813 -0.017347706 0.0062309783 0.0011539515 0.0038808743 0.018488077 0.011194234 -0.009273104 0.007634652 0.0055064796 0.0008760379 0.0149586 -0.013436391 -0.002494225 0.0054990146 0.011638992 0.0012877081 0.015980769 -0.011717417 -0.019299999 -0.017376827 -0.008001766 0.020654513 -0.0109359585 -0.011316183 0.017587582 -0.016622 0.006312597 0.012994747 -0.014117003 0.0011999591 -0.0062873205 0.013500267 -0.01021296 -0.013081964 0.019803138 -0.004465759 0.015439727 -0.01650096 0.01217595 -0.004042769 -0.015866041
cook -0.0016478354 -0.0045731124 -0.003436436 -0.002273376 -0.012408824 -0.010807436 -0.004629381 0.019835018 0.007852333 -0.0009872894 -0.0110635245 0.007149681 -0.016642949 0.004325476 0.0068746004 -0.003007036 -0.006642235 -0.015489427 -0.021204121 0.012292483 0.007558026 0.0012561807 0.023282517 -0.018271178 0.0036382647 -0.0009606862 -0.018695148 -0.018986557 0.010965423 -0.0065869577 -0.01463692 0.015416326 -0.013875169 -0.0053266194 0.0019871579 -0.004175097 -0.014426539 -0.0069485465 -0.016700935 0.000922013 -0.006740341 -0.0011749709 0.005776256 -0.0047752275 0.022995224 0.014528687 -0.00043813256 -0.0039204573 0.0041003358 0.013565684
sandwich 0.018468548 -0.0038457406 -0.0029200115 -0.0062902686 0.002120655 -0.016930735 -0.0017719242 -0.013179301 -0.0030843576 0.003936835 0.0056393463 -0.009943987 0.013705414 -0.012802766 0.018115407 0.0021523084 0.0069942595 0.009869943 -0.004223462 0.0028264013 0.003771853 -0.016096605 -0.0020362483 -0.0066919234 -0.015707122 0.0070728394 0.007327316 -0.0053005693 0.010610549 -0.0014351644 0.0013298325 0.010872779 -0.019081427 -0.013074569 0.012919804 -0.0098457 0.019169215 0.012164469 -0.014379593 0.014782591 0.016095705 -0.015256359 -0.016525043 -0.017797032 0.014541347 0.01306764 -0.0033838172 -0.00011104196 -0.013647354 -0.01104814
littl 0.009624632 -0.0182828 -0.018148197 0.0018435079 -0.016874027 -0.016971068 0.0115306275 0.019710073 -0.01795276 0.017049728 0.017732436 0.0064015007 -0.0077591767 0.020675126 -0.016422233 -0.0068260566 0.00595005 -0.014556677 -0.023980485 0.0035313047 0.016389437 -0.008340927 -0.0054358235 0.006862644 0.0036602903 -0.016808473 0.01161051 -0.007206621 0.0038923116 0.006623289 0.01892737 0.016880307 0.013489252 -0.015471769 0.0012817346 0.0007374572 0.0028720396 0.01836596 0.011159464 -0.019960122 0.021887623 -0.0026631474 0.00053587387 0.00988939 -0.007527562 -0.00064167136 0.0035583682 0.011592112 0.011245378 -0.0041627814
anoth -0.016656153 -0.007647146 0.018546045 -0.019707939 0.020560853 -0.0037583427 -2.2206632e-05 0.023592964 0.015347179 0.017311797 0.016202025 -0.02415015 0.016251551 -0.017537925 -0.016905366 -0.016916968 0.0071305702 0.015303987 -0.017266018 -0.00767929 -0.0043983865 -0.0062521733 0.0016289914 0.008677434 0.010521636 -0.0063584866 -0.009811752 -0.0064945337 -0.010543588 0.008749885 0.021319317 0.0151516395 -0.01794123 -0.011858435 -0.020499617 -0.009010134 0.008718727 -0.010411306 0.0057283854 0.016422275 0.009770061 0.0008046108 0.018381573 0.012964678 0.0031232438 -0.012066059 -0.000999721 0.011803777 0.018928576 -0.009016651
atmospher 0.020425733 0.004831378 0.010076074 -0.0114627555 0.009009741 -0.0015365777 -0.018109329 0.012434701 -0.020234028 -0.0127195995 0.0043789065 0.01682865 -0.0037070382 0.01434945 0.009203123 0.008666002 -0.01101194 0.01048841 -0.01894229 -0.009800788 0.0110936845 -0.014887256 0.013434116 -0.0072955806 0.0017353672 -0.014680945 -0.013927241 -0.0074209855 0.015002857 0.0112507865 -0.018637624 -0.013246057 0.005988943 -0.016436245 0.012481677 0.0142121855 -0.018143333 0.017928459 0.016580021 -0.004797603 0.0052542784 -0.012112439 0.012848418 0.015531128 0.011563753 -0.0177092 0.010455116 -0.0076924986 -0.0026595357 0.011930829
side 0.00419704 0.009347793 -0.012442109 0.010002457 -0.0064955233 -0.0035610108 0.014343549 0.011232034 0.011931495 -0.0070044543 0.005754814 0.012223901 -0.0058401274 0.011912184 -0.020062016 0.018219618 0.00917765 0.010786169 0.0059229457 0.007994005 -0.006628286 -0.010337418 -0.0013429372 0.00199902 -0.0036830804 -0.017241083 -0.013949834 0.015441869 0.01579379 0.012427845 -0.006827566 0.0008718565 -0.018355347 0.013993106 -4.1320527e-05 0.01702954 -0.010094612 -0.0049997442 0.0073378403 0.0056825867 -0.01130918 -0.015536616 0.0039742454 -0.018173162 0.015998458 0.0112346215 -0.0070746075 -0.013271418 -0.014486944 -0.004280053
excel 0.014495785 -0.0007846758 -0.016016444 0.017443404 -0.016462432 0.008857703 0.014414506 0.0045446106 -0.019875638 0.0128377825 -0.017112985 -0.012676926 0.020242332 -0.015672158 -0.016283562 -0.009173575 0.008536781 0.0042116535 -0.01422953 -0.0080069555 0.017543985 0.020917198 0.022429066 0.0016900477 0.009154286 0.0025939408 0.0022096757 0.008636252 0.0018604326 0.0011100704 -0.0050865286 -0.013616363 0.015074354 -0.011271917 0.0046237325 -2.6201818e-05 -0.006441537 -0.0091245165 0.0075624324 -0.013128201 -0.013140883 -0.0062712743 0.009449123 0.01201844 0.00045923472 0.014895559 -0.014643257 -0.011040349 -0.013450826 -0.012806213
ca 0.014271462 -0.018597985 -0.01719275 -0.020572994 0.01848141 -0.0069716987 0.0033409162 -0.009434638 -0.0076195886 5.947004e-05 -0.0055407663 -0.017328 -0.011966466 0.005974931 -0.019961808 0.0027779145 -0.002670195 0.017237263 -0.0035130798 0.011115025 -0.013894076 -0.013785489 0.013973999 0.0012613736 -0.009203903 -0.0050560622 0.016493224 -0.0184305 -0.009649968 0.0021731218 -0.000481053 0.01858134 -0.004623412 -0.013780458 -0.016341163 -0.018488852 -0.014599948 -0.011386982 -0.011446542 -0.0038646944 0.0004150491 -0.010514796 0.00390305 0.0076803123 0.020740664 -0.00901637 0.0106417695 0.0127933575 -0.0059159617 -0.015081109
lunch -0.006434343 -0.014048206 0.013057225 0.018434744 0.016803054 -0.018480372 0.010980716 0.012075031 0.009571446 -0.016145248 -0.0007282295 -0.015061188 -0.017457819 0.0053754495 0.0192176 0.013530628 -0.013577649 0.0049118637 -0.009519029 0.018950986 -0.017631076 0.020546047 -0.011442987 -0.014816396 0.0042210836 -0.0012045812 -0.017832635 -0.0019313634 -0.0022140348 -0.012490763 0.012266116 0.006029518 0.016164536 0.015430849 -0.013950042 0.0107041225 0.011949394 0.012155155 0.01107611 -0.010199794 0.00995401 0.0021546388 0.00033098756 -0.012910595 0.005330087 0.010732885 -0.018003888 0.016209727 0.0072143343 -0.00067075796
reason -0.0069843545 0.000695239 0.012948403 0.009557225 -0.011903944 0.014507647 -0.00015265991 -0.013794147 0.015543504 0.011157443 0.0063384976 0.014629049 -0.0145456195 -0.011087955 -0.005404778 -0.0076718363 -0.0015925999 -0.0008078684 -0.019356985 0.003219354 0.005748685 -0.0006181087 0.011897587 0.0026417351 0.013895027 -0.0041298335 0.015615549 -0.004014915 0.00427049 -0.007569738 0.013678429 0.005763913 0.00021468788 0.018264335 -0.017386638 0.02084603 0.0025170078 -0.0046210643 -0.0068265474 -0.019379353 -0.0024992323 0.0048029707 0.013455147 0.01837814 -0.014508087 0.018675895 -0.017120576 0.0055618123 0.017602954 -0.005265218
deal -0.015479423 -0.016771797 0.002479524 -0.0018038735 -0.018623985 0.004080506 0.0060961293 0.011600724 0.006419405 0.00667323 -0.020611674 0.009351433 0.009314495 -0.014972689 -0.0050464454 0.0017669951 0.0003251665 -0.0016608364 -0.013998139 -0.0016614822 0.0091502555 0.0003861047 0.004434675 0.0033953558 -0.006443503 -0.01568697 0.016934011 -0.020321202 -0.007541309 -0.002308181 -0.014191825 0.0028302767 0.014846908 -0.0023016715 0.0152356345 0.002525343 -0.010663032 -0.0031731462 -0.00035110116 0.011287359 0.016183754 0.011477335 -0.012399588 -0.014233168 0.015536515 0.005176117 0.011281553 -0.0008800893 0.01769308 -0.017850325
look 0.020159714 -0.016293969 -0.003266766 0.01237438 -0.017502047 0.006173452 -0.012155098 -0.010541107 0.0012310691 0.0038053948 -0.0071511394 0.012664354 -0.013191057 0.0018988211 0.016540555 0.004913075 -0.011755452 0.008069483 -0.013214148 -0.00090234354 0.006272552 0.01708362 0.018343095 -0.0105796065 0.021222372 -0.010730976 0.013532157 -0.01648592 -0.018652618 -0.001470234 -0.015188563 -0.007581364 -0.002343013 0.0014131328 -0.021333387 -0.010954757 -0.013590811 0.00027087342 0.011989028 -0.0019237866 0.022529684 -0.008486549 0.01640304 0.012134113 0.021039696 0.00068731944 -0.00061183824 0.0011558112 -0.017480731 0.01798033
lot -0.004910645 0.014888124 0.0045705726 0.005532393 -0.0022063882 -0.022470225 0.004486155 0.009065031 -0.022787534 -0.0074098185 -0.0058236937 -0.01290145 0.008733 0.005299779 0.0074391537 -0.01228222 -0.010288517 0.010471883 0.009855473 0.009074434 0.009916942 -0.012696739 0.01992024 -0.0148398215 -0.013340499 0.0172826 -0.006430026 -0.020084769 -0.009181965 0.012343132 -0.0042298916 0.009107016 -0.001142242 0.00939574 0.00089693104 -0.016359653 -0.0063562077 0.01845311 0.004319517 -0.013343261 0.016346566 0.014016874 0.014608608 0.00014321331 -0.0136624575 -0.0068505583 0.0105175115 -0.015526928 0.02226041 -0.019995611
everi -0.016468864 -0.010478941 0.01243503 -0.015675962 0.018087167 -0.022061503 0.008343605 0.009779886 -0.002649999 0.018960457 0.009242129 -0.002165483 0.010443596 0.013506227 0.00497009 0.019807432 -0.0007812082 -0.01620059 -0.012403923 -0.0047817375 -0.014424018 -0.0016855714 0.018777393 -0.010240439 0.011959597 0.009472208 -0.002587503 0.001698293 0.009165394 -0.013077389 0.008686054 0.017631395 -0.0077464506 -0.014270076 -0.019852059 -0.015903376 0.008870337 0.01113627 0.01535759 -0.004469558 0.0040637837 0.0056488207 -0.019864311 -0.019137362 0.013638445 -0.016835304 -0.0062667932 -0.011023146 0.014254722 -0.007318965
absolut 0.019870704 0.001264755 -0.010317448 -0.00754782 0.003034585 -0.013092814 0.01615895 0.021192707 0.0058917874 -0.014272379 -0.013239266 -0.002667201 -0.0014291417 -0.010434789 0.014864578 0.013247188 -0.0070850337 0.0055708247 0.0073970407 0.0033074082 0.017520005 -0.00055167306 -0.010151446 -0.0024835416 -0.015006457 0.019885581 -0.018698992 -0.0037769657 -0.008366528 0.006612164 0.011067106 -0.016991602 -0.009821745 0.0018094232 0.0065571237 0.012180107 -0.0018483332 -0.00029926616 -0.01465347 0.007591311 -0.01285032 0.0058252504 -0.006822708 -0.01578792 0.017914873 -0.0008907732 -0.018849261 -0.02074965 0.003595946 -0.016781477
suck 0.007610204 0.00715717 0.006863354 -0.01132103 0.016417729 -0.020278428 0.016301837 0.0017727675 -0.005297057 0.008728962 -0.0056304424 -0.011341323 -0.0036638405 -0.011272712 -0.001738562 -0.010082301 0.010524379 -0.018669646 -0.0119271865 -0.020014558 -0.019215418 0.00017660532 -0.013400428 -0.01226008 0.0076383715 -0.0031564923 0.005067468 0.015834562 -0.02215935 0.012526831 -0.014758644 0.012694682 0.013745895 0.017933438 -0.016968388 0.008804646 -0.0146371005 -0.0017178344 -0.009229457 -0.018446805 0.01194821 0.007924569 -0.008435499 -0.015344189 0.0110805305 -0.0075889104 -0.017532738 -0.010541604 -0.0022751826 0.017112227
hot -0.011996998 0.015026431 0.012498878 -0.010029594 -0.002363874 -0.008545031 0.00863052 0.0032337864 -0.010235815 -0.017627569 0.011205447 -0.023132341 -0.0159384 0.0034995752 0.004620486 0.0011750438 0.0036318477 0.0059388084 -0.0010239229 0.013426676 -0.006447229 -0.011887534 -0.011228286 0.014717455 0.00670971 -0.012007533 0.010076115 0.015837114 0.0120154675 -0.012663859 -0.008057632 -0.005468188 -0.014965162 0.010658453 0.009682297 -0.008966563 0.015857322 -0.014115958 0.014505383 -0.011155911 0.0072450205 -0.007553803 0.006923151 0.015220866 0.00312801 -0.009675648 -0.016625058 0.00432028 0.011984112 0.0129574975
rude -0.008154844 -0.019369867 0.0140589895 -0.009249671 0.009306124 0.013654124 -0.006283305 0.0061984635 -0.009934718 -0.012936096 -0.012683408 -0.0026918577 -0.013783415 -0.0033623364 -0.0060888906 0.014494768 0.0042209667 0.012230049 0.0044456995 -0.009072151 -0.010046221 0.020739468 0.016979752 -0.018929185 0.012103135 0.01627234 0.01676567 -0.017481055 -0.00669492 0.0027769292 0.0071338583 -0.0038230822 -0.01084665 0.013826465 0.012853501 0.001187222 -0.010819966 -0.008208768 -0.009131925 0.007354452 0.0032835514 -0.0056203916 -0.018106135 -0.0028947035 0.01702211 0.012936242 0.008496199 -0.0076397564 0.020551879 0.0011782773
cold 0.0027095694 0.0124821365 -0.012720822 0.012858435 0.020184146 0.004583287 0.008772146 0.0118009215 -0.0069211205 -0.015667621 0.0019834081 -0.0009380458 -0.012743974 0.004829836 0.00922102 -0.013578572 0.0071266782 0.016148908 -0.020802988 0.005703128 -0.01690781 -0.0140417265 0.017539296 -0.015789902 -0.00053591223 -0.015945433 -0.017810678 -0.014917088 -0.0021132168 0.0039127916 -0.014278965 -0.017114341 -0.0076672323 -0.002896547 -0.013933189 -0.006019174 0.008651689 0.0073502865 0.01495566 0.0069053564 0.0007965222 0.0047104796 0.018348727 0.0037997246 0.008129357 0.0023330853 -0.018241968 0.00803698 0.012497927 0.00012500174
expect 0.018417642 -0.010931801 0.00675182 -0.016173689 -0.017401472 0.002450083 0.010847602 0.014949428 -0.019974666 0.009168624 0.0037533608 0.0057520336 -0.0007749145 0.011697162 0.013748387 -0.016244598 -0.017903112 0.014636593 -0.0045295353 -0.019954767 -0.008017581 0.0037529273 0.01941894 -0.0039359904 -0.0004209575 -0.014649829 -0.016552988 0.00229791 -0.0031690577 -0.01514178 0.0026287588 -0.018279305 -0.0056044497 0.008989348 0.00113285 0.017455911 0.013876033 -0.00162244 0.01079514 0.011191644 0.019613683 0.017435484 0.009926375 0.009509149 0.017504023 -0.0026853431 -0.010680706 0.016007267 0.0039892728 -0.010263997
drink -0.0017591305 -0.010418674 0.018745763 0.0057354346 0.009508369 0.010287441 0.018195739 -0.006138972 -0.016594375 -0.0067610396 -0.008709978 -0.022507243 -3.4036933e-05 -0.014967069 0.018319042 -0.0064822626 -0.011130515 -0.01554889 -0.010903505 -0.02116722 0.0020166172 0.013310974 -0.0013973337 0.01432939 -0.0012037413 -0.014662804 -0.007897587 -0.007779821 -0.017487254 -0.019023784 -0.006788447 -0.0040532644 0.008261597 -0.014183554 -0.011745174 0.0053476864 -0.0017393619 0.008336543 -0.002115974 0.0073176543 0.018771477 -0.0171169 0.0077269813 0.0122193005 0.0035265442 0.014163985 -0.010296802 -0.011517851 -0.013405871 0.018741727
bar -0.018558938 -0.006482608 -0.0006246026 -0.010241739 0.019549876 -0.015788332 -0.01445631 0.021848029 -0.019763999 0.019943358 -0.009741897 0.009260783 3.6387217e-05 -0.0077251624 -0.016236356 -0.012325141 0.015723879 0.013450133 -0.002822245 0.011456599 0.0080560725 0.009542629 0.008337411 -0.02033607 0.020785177 -0.016317822 -0.007864177 0.0018596668 0.007813944 -0.018187707 0.004922594 0.012261822 -0.01875898 0.020021029 -0.012268751 0.021160448 -0.012042276 0.01412109 0.020036615 -0.020056592 0.0021116235 -0.01634607 0.016535787 0.019403238 -0.007853059 0.0018689787 -0.003978531 -0.017578248 0.004019367 -0.020110913
make 0.0056351805 -0.015863318 0.011920589 0.014251275 -0.004728152 -0.011353135 -0.017429926 0.013085451 0.0021604605 0.01787324 0.00534722 -0.00924054 0.00815248 0.018315066 0.017263047 0.015998106 -0.015579976 -0.0140450625 0.010515515 -0.016391885 0.0070410604 0.018643724 -0.0026704667 0.012445062 -0.014865015 0.012908891 0.009671661 0.005844463 -0.019680178 0.018932082 0.017767534 -0.003994921 0.0069625066 0.013599292 -0.004669954 0.013464884 -0.006826168 -0.0015955593 -0.0014147946 -0.010091034 0.0010822548 -0.01702787 0.0075375154 0.018446278 0.014369996 0.01331554 -0.0090717105 0.0072367103 -0.010647008 -0.010411243
peopl 0.020360356 0.012768543 -0.009495755 -0.012346981 0.015031712 0.0027995657 0.015078156 -0.010564997 -0.004766149 -0.0014901827 -0.0017427542 0.0018842473 -0.012462855 0.009081151 -0.0065222057 0.01766855 -0.00041277314 0.018933319 -0.005209782 0.008648748 -0.015415501 -0.016166067 0.002043832 -0.0055838088 0.02225737 0.009119381 -0.01247061 0.013276502 -0.0016787869 -0.018654661 0.01309733 -0.0047798865 -0.01995988 0.018272739 0.013167667 0.019403486 0.0016326467 0.016115213 0.011939437 -0.01532306 0.020795109 -0.008062309 -0.019799434 0.016977439 -0.0063669663 0.016992355 -0.015447266 0.016755061 -0.0091292355 0.007627475
quit 0.019579086 0.0086120125 -0.004001461 -0.010272197 -0.018657818 0.005612521 0.01656303 -0.006328601 0.008218898 0.014632846 -0.019141898 0.0011284592 -0.012772613 -0.0076904385 0.0004042047 -0.013158156 -0.006054657 -0.014314459 -0.018096572 -0.015468159 0.020395013 0.019112602 0.0031102747 -0.006460425 0.0151066305 0.0025633 -0.019703299 -0.015466735 -0.0012721334 0.016279394 0.007872922 0.018871022 0.011726236 0.0016737873 0.01590424 0.020579526 0.01783116 0.020182157 -0.01736604 0.0053194445 -0.013092635 -0.015824497 -0.01721159 0.0065452512 0.0048435125 -0.012310168 0.011767815 0.013891558 0.010942915 0.015447752
mani -0.00854057 -0.012835074 0.008430818 -0.0063912924 -0.013881802 0.004263409 -0.004670865 -0.0074422862 0.0016047247 0.014014605 0.011387696 -0.002538718 0.018379027 0.0069789723 0.011862825 -0.000717215 0.006338268 0.013179723 -0.023415226 0.0093951905 0.0027806545 0.014476911 0.0011368542 -0.0063627865 -0.009086846 -0.0053367577 -0.0070127165 -0.011341975 -0.0014456838 0.016410964 0.011779136 -0.015919734 -0.015958792 -0.004486966 0.006283041 -0.016185421 0.013179959 0.0069830497 -0.004015752 0.016851107 0.01897521 -0.00017273554 0.0093598645 -0.018401682 -0.0127228955 -0.005224955 0.018737076 0.0045552254 0.014228331 -0.013851525
potato 0.008822543 0.0009485511 -0.0012945152 -0.006743102 0.010636977 -0.020891352 0.011853995 0.014404496 -0.0080338335 -0.008049508 -0.01605977 -0.015345098 -0.009436157 0.0071844077 -0.010421025 -0.002013253 -0.01615809 -0.006409588 -0.0045246915 -0.01784034 0.0066941 0.021434823 0.012005996 0.0029782995 -0.0073901955 -0.0022670398 0.002612303 0.002611155 0.015235189 -0.0014202317 0.015058195 0.010941081 0.0048797308 0.015338802 -0.01104341 -0.0058732145 0.014890105 0.018406976 0.007806286 -0.009558601 0.01776008 0.0045394828 -9.011651e-05 0.0178074 0.012873055 0.008099272 5.1578005e-05 -0.019849388 -0.004071108 0.0049663065
right -0.010924383 0.014372594 0.0155617315 -0.018306786 -0.0104594715 -0.014757132 -0.0001194556 -0.0005944564 -0.0069096894 -0.004193123 0.005853106 0.016531592 -0.008326041 -0.01557674 0.0068857907 -0.0124777835 0.014663208 0.0059841108 -0.01927569 -0.017046936 -0.01858598 0.0069867778 0.008626234 0.004208921 0.0024301233 0.002027316 0.004648613 -0.003834055 -0.018819384 -0.0010617605 0.008447484 -0.005437524 -0.0053733755 -0.003512103 0.013282868 -0.0038400022 0.02015156 -0.006717774 -0.019103618 -0.014387318 -0.0067548337 0.0012838091 0.01044735 0.004105439 0.022359774 0.0021324318 0.0117335105 -0.0014366708 -0.0022839028 0.0124089
breakfast 0.0042023915 0.016877366 -0.016582442 -0.018039372 -0.0009367581 -0.0059913043 -0.0037277332 0.0012637195 -0.01256835 -0.015640568 0.015485139 -0.008628324 -0.0050874166 -0.002927277 -0.0032357727 -0.017848222 -0.0023118285 -0.0023395948 0.014688561 -0.017248461 -0.009622335 -0.0020239893 0.008509649 -0.012972546 -0.00962976 -0.01611123 0.010015262 -0.018568233 -0.008260002 0.00083094573 0.0036395902 -0.020465601 0.016747342 -0.0034900506 -0.00051141775 -0.01564805 -0.01527453 0.008296818 0.009243563 0.004892193 0.012957291 -0.014753037 -0.0024868057 -0.0055457787 0.00029608505 0.009077702 0.0028491453 -0.016479922 0.008358516 0.012488432
need -0.011830397 0.006785413 -0.0073824488 0.017688412 0.009324205 0.00023927147 0.00018072104 -0.0139136715 0.01266626 -0.0027669882 0.012843719 0.003538765 -0.015058247 6.3275875e-05 0.004107706 -0.0040990612 0.022268811 -0.009067653 -0.01936539 0.004939522 -0.006882607 -0.010764382 0.008645637 0.009349883 -0.007869042 -0.008294752 -0.01710791 0.0018794716 -0.013456264 0.017535597 0.003435636 0.002770239 -0.008499572 0.016087512 -0.0035588436 -0.013038378 -0.0128552485 0.0020003635 0.017575232 0.004047279 -0.0072668632 -0.01470981 -0.019584024 0.008154333 -0.012646526 0.006512126 0.004210397 -0.004668411 -0.016640386 0.011712917
beer -2.3209299e-05 -0.019922778 -0.014417672 0.017166773 0.004762874 -0.01900357 -0.00029203334 0.013810708 -0.021559086 -0.013400861 -0.00328357 -0.022217644 0.0016235284 0.0046058493 0.016268617 0.0026331225 0.0043387343 0.01054582 -0.011972052 0.0130326515 0.000577141 -2.7901297e-06 -0.01700156 0.00028432964 0.0151619185 0.0035318255 -0.017784072 -0.007404741 -0.014299341 0.012104585 -0.012128633 0.010121761 -0.011833104 -0.0131368525 -0.016579865 0.009433596 -0.016404705 -0.010961309 -0.013185727 -0.010039108 -0.0061176186 0.002033426 0.013461045 -0.0023795653 -0.006807884 0.0033025455 0.011788852 -0.013273801 -0.008960794 0.01043965
day 0.012839096 -0.015691878 0.016983317 -0.02002503 -0.014157306 -0.015030168 0.0055307387 0.003939968 0.0034614913 0.0147124315 0.008463599 -0.009466232 -0.0116807725 -0.015672449 -0.002357098 0.020328075 -0.013284383 0.007936908 0.004851232 -0.010787236 -0.013903915 -0.008753984 -0.0065750005 -0.014905567 0.014514394 -0.015626926 -0.0077404887 0.00776256 -0.0029394492 -0.014929572 -0.00807861 0.0067261597 0.003776962 -0.0028844436 -0.0029421654 0.007828012 0.0044361255 -0.004357118 0.012383945 -0.017115071 0.015169846 -0.020994639 -0.004575843 0.013438192 -0.0024341973 0.01314771 0.011418702 -0.017141242 0.0019282856 -0.009051076
spot -0.016296804 -0.0020446165 0.013219445 0.017657684 -0.009688118 -0.0071827085 -0.010912888 0.0049419636 0.0028502785 -0.019249737 0.0041240063 -0.019709775 0.001354693 0.010273249 -0.011645047 0.0010098453 -0.0031084174 -0.016977375 -0.007326042 0.007963086 -0.017031718 -0.010322465 0.0013023767 0.0154414615 0.004429944 0.019529806 -0.016693525 0.017224513 -0.011499691 -0.012538843 -0.014631365 0.0030566996 -0.006579699 0.015827315 -0.0023537406 0.0069081667 0.012863482 -0.01674712 -0.0030347432 -0.010808534 -0.015528459 0.005776883 0.005025842 -0.0045315144 -0.0003555168 -0.013371525 -0.0059526563 0.00050644396 0.01732853 0.013728985
soon -0.0073010353 0.0072125685 -0.005310159 -0.010121535 -0.0069390526 -0.013794955 0.00845231 -0.013404755 -0.016871301 -0.009417809 0.013802558 0.0016504356 0.011716232 0.017140755 -0.0130225755 -0.008852707 0.01690455 0.010580303 0.0075268247 0.016596947 0.018004479 -0.004492209 0.0044605755 0.010302175 0.019478431 0.020244181 -0.017817298 -0.010665108 0.008251677 0.0022557413 0.0008182756 0.015090566 0.012057081 -0.013889982 -0.00610474 -0.015900435 0.01527485 0.006276645 -0.0035218776 0.003041232 0.016600415 0.015500925 0.012328619 0.0060452064 0.0056687254 0.016743908 0.0030974145 -0.0004188664 -0.017577725 0.0051420564
friend -0.017201414 0.013032082 -0.010955194 -0.003733247 0.002466201 -0.0066231336 -0.016730215 0.011068093 -0.016363924 -0.017194035 0.0065938365 -0.0040506716 0.013770401 -0.012875445 0.00069546053 -0.00016039572 0.013285059 -0.018482532 0.008246619 -0.019766795 -0.015894016 0.0035004064 -0.0021137549 -0.008510404 -0.0085151 0.008723035 -0.02062554 0.0015111178 0.0059953295 -0.00026899538 0.00027694996 0.013600334 -0.020433472 -0.01745963 0.007254859 0.01986003 -0.014278798 -0.015693609 1.7566283e-05 -0.019362694 0.0066501396 0.01770014 -0.012209273 -0.013434086 0.022083735 -0.0013013743 -0.007207862 -0.007681246 -0.015349408 -0.009528298
waitress -0.008114743 0.00051185244 0.0012872855 0.0152296005 0.014000113 -0.0051008435 -0.019111577 0.007575612 -0.014279766 0.018414773 0.006609634 -0.0037009057 0.01375223 -0.0065846443 -0.007965032 -0.000103976534 0.01805993 0.012238839 0.000984396 0.0066157654 -0.0060093743 0.019938579 -0.012432524 -0.006777174 -0.009327071 0.017559154 -0.007225772 -0.0052504432 0.0125576155 -0.019096347 -0.004828482 0.0055696643 -0.013560527 0.018416744 0.0018084912 -0.009026201 0.010509183 0.016456945 0.002718346 0.01277521 -0.0123209655 -0.00756239 0.02001719 0.011225115 0.005964658 -0.006756103 0.00934273 0.0037071942 0.018532734 -0.0005438245
check 0.017479511 -0.011546039 -0.01510795 -0.0031303158 0.006154053 -0.006041579 0.013049923 -0.014642007 -0.020591147 0.015472484 0.011517067 -0.009958229 -0.0073254025 -0.006524505 -0.0009919185 0.018380394 0.0032883515 -0.0036942794 -0.009427151 -0.0058002714 -0.018299665 0.015413541 -0.015496432 -0.006909453 -0.01284278 0.017788071 0.010589638 -0.0017650157 0.0055558127 -0.0045705508 0.021096788 -0.007590554 0.008957209 -0.0068888804 0.018175151 0.021054465 0.013385591 0.000249376 -0.0024681014 -0.018249052 0.020293219 -0.017897451 -0.013084534 0.011535744 -0.001370613 0.01641254 -0.015534942 0.017080823 0.006028316 -0.017605605
tasti 0.007991396 -0.009985467 0.013098198 0.013276268 -0.017310968 0.011299468 0.01179537 0.014985051 -0.016018927 -0.012952323 -0.018750073 0.009048097 -0.0075533893 0.009741658 0.008875493 0.016804535 0.0059147696 -0.0019781205 0.0008928671 0.0052457354 -0.017532801 -0.010944336 -0.00036021744 0.009135252 0.0009794438 -0.019491378 -0.0024235204 0.013537375 0.010995231 0.0074460125 -0.008359698 -0.0077988417 -0.0049637915 -0.0116412975 -0.017953787 0.00030686884 0.0043763276 0.010362823 0.0082224235 0.015873274 -0.012392036 0.01832612 -0.0065167425 0.0014240366 -0.005687451 -0.0078317085 -0.002629663 -0.016168574 0.019507091 0.009202612
ask -0.0043179872 0.004140345 0.016191687 -0.01202825 0.008228997 -0.0013533987 0.0076749464 -0.00033742088 -0.023756534 0.012785674 -0.003976738 -0.020188162 0.002280344 -0.011179268 0.014317213 -0.011595649 -0.0011196818 9.868988e-05 -0.01295622 -0.009003225 0.014799581 0.00579778 -0.015263572 -0.0014579537 -0.01682221 -0.00582084 0.00790096 0.0063299406 -0.01478552 0.003650284 0.013064898 -0.015710501 -0.008029486 -0.003950585 -0.019501273 0.0067474446 0.014573366 0.0059555713 0.0061988505 -0.003024919 0.0012856583 -0.01425955 -0.0010812384 0.013632493 0.010971048 0.0013611021 0.01613395 0.0030420485 -0.012220427 0.013925727
seat 0.019409575 -0.018197026 0.015165936 -0.015886536 -0.0006121837 0.006859941 -0.010110816 -0.012812997 -0.017444735 -0.019548163 -0.014357111 0.016596276 0.006625668 -0.0173163 0.015980016 0.01549219 0.017503727 0.020041326 -0.02083985 -0.0061074537 0.004532527 0.0069930777 0.012772891 -0.016463438 0.011880182 0.020022918 -0.01939518 0.014797044 0.003663042 -0.008125634 -0.0020610746 -0.017778954 -0.01619262 0.011709811 -0.0075981454 0.022410609 -0.015095905 -0.012983477 0.013416659 0.014377526 0.009507426 0.013877082 0.013007102 -0.011744943 0.021500971 -0.012361604 -0.005260735 -0.014309178 0.0144931 -0.008782408
bit 0.0063183885 -0.0029942975 -0.0021927622 -0.012019609 -0.010731737 -0.00952994 0.0022058615 0.006174187 -0.009674341 0.0042112395 -0.012606153 0.017292071 -0.0005801208 -0.013185763 -0.004601976 0.01682424 -0.0003463338 -0.0097037135 -0.019349234 -0.013560772 -0.0063128415 0.017364735 -0.0117153255 0.0019650443 0.002191824 0.008207116 -0.017654821 0.01504307 -0.00843165 0.011091137 -0.017634295 0.009986288 -0.017777206 -0.005542836 -0.0034575586 -0.005076928 -0.0001274473 0.00087321637 0.010278092 -0.006182153 -0.005810222 -0.013228028 0.017055038 0.009414139 0.022473626 0.011333253 -0.008615338 0.014683733 -0.011843171 0.0058472673
sinc -0.0066829445 0.0009761766 0.007301286 -0.0061973045 -0.008389991 -0.006589182 0.0029861133 0.016448468 -0.015376016 0.009942038 -0.00878173 -0.018963052 -0.010138671 0.00453286 0.016445838 0.016663522 0.020783283 0.0147013 -0.0097250035 -0.006796388 0.017963978 0.015214399 0.015544084 0.013153019 0.0050751464 0.005393147 -0.018264862 0.0147567345 0.015830843 -0.013939984 0.0034604268 0.01714823 0.006362186 0.014809948 0.013969325 -0.001433405 0.019419238 0.012785574 -0.0027251218 -0.0013286215 0.021961795 0.010389698 -0.013680099 -0.007134752 -0.002564619 0.006436569 0.0030008764 -0.01981243 0.007003272 0.0189688
take 0.004476471 0.008516086 0.0040602735 0.015987532 0.018126046 0.004520844 -0.0038370641 0.009386009 -0.017541174 0.016297435 -0.008545699 0.018508855 -0.019039942 -0.004431187 0.017195888 -0.0078022946 -0.0027526307 0.010577951 0.015999777 -0.0018159149 -0.013668989 0.021116052 -0.01689993 0.0020213106 0.012466294 -0.015397684 -0.0122302165 -0.018795332 -0.0021286302 0.010161936 -0.015722668 -0.006500044 0.016076416 -0.008104667 0.0057210904 0.008484116 -0.006408188 -0.009831061 0.017393978 -0.0059983367 0.019364733 -0.005303778 0.006071731 0.0116213905 0.004174716 0.008969777 -0.011544754 0.015488184 -0.0016696524 -0.00868385
clean 0.010496645 0.020243246 -0.010951277 0.0014421727 0.008958175 -0.0072814454 0.002425804 0.020123055 0.013551265 -0.0123587735 -0.007184657 0.017070642 -0.00024661605 -0.018422615 -0.0025125532 -0.013657363 0.0032199442 0.0019855434 -0.011283074 -0.009761431 0.017922983 0.010624058 0.0076025836 0.0031669529 0.018206753 -0.009838418 0.011121635 -0.0030008182 -0.01730569 -0.019279975 -0.0022147151 0.015730761 0.003649126 -0.01747209 0.0014919903 -0.0055151586 -0.0073770783 0.016761715 0.012809159 -0.00019269255 0.006042334 0.001189837 -0.019743478 0.005896801 0.017316082 0.008044837 0.005391003 -0.008157504 0.006498556 -0.015665494
happi 0.008513912 0.0047528073 -0.0003181395 -0.0015367707 0.005449012 0.002740069 0.0038929745 0.020491248 0.004863776 0.0031984914 -0.006894932 -0.01403756 -0.018197294 -0.0057337703 0.007725116 0.015714353 0.0025495803 -0.009217424 0.004874268 -0.008973889 -0.0009935682 0.019245729 0.018916653 -0.0011732436 -0.0104113715 0.0076029142 0.018548928 0.016958574 -0.0055041793 0.014760239 0.019293346 -0.019888368 0.017101796 0.0008183729 -0.011021553 0.008880322 0.018592952 -0.013821224 0.014489314 -0.013991715 -0.013947323 0.010443211 -0.008934472 0.009791402 0.017895702 0.019493563 0.0118331015 -0.01954683 0.008138995 -0.01843867
custom -0.00028883418 0.019394046 -0.009848821 0.007913605 -0.011063516 -0.018884439 0.017578244 0.00944661 0.012067907 0.0068041063 0.0008687889 0.005119114 -0.015921185 0.01348868 -0.010158252 0.009772673 -0.009504124 0.0022721465 0.004844489 -0.006781617 -0.015327808 -0.010696783 -0.017826859 0.018657768 -0.007192665 -0.0022693917 -0.019615328 -0.01002302 -0.012347421 0.006318033 0.012577487 0.006705527 0.018799553 0.0043410757 0.018896867 0.017135689 0.0062499577 0.00462116 -0.013904191 -0.005804934 0.01315975 -0.017168613 0.004369088 -0.01500137 0.02323041 -0.00018207928 0.0021106382 -0.011362984 0.014868395 -0.01424842
overpr -0.01461121 0.013067336 -0.0064087007 -0.0021360544 0.011353898 0.007719952 0.013369042 0.016029144 0.009687628 -0.017360795 0.010080452 0.016599158 -0.007417521 0.0026315097 -0.0068818885 -0.006405916 0.01829304 -0.00013625828 0.0045090793 -0.012053758 0.011582479 -0.0056312676 -0.00844337 0.0039371965 0.020774843 -0.012083114 0.0059049153 -0.002496383 -0.016113698 -0.008325151 -0.01615559 0.011216305 -0.0060538906 -0.010044594 0.0010730248 0.010697498 0.019866232 -0.019358065 -0.00018297163 -0.0033790623 -0.0040474106 -0.0018755862 0.016081158 -0.0037636433 0.021558598 0.00058555196 -0.0016332672 0.012630327 0.015252527 0.0004993898
said -9.320991e-05 0.012964323 -0.0072324225 0.0090334155 0.0003427283 -0.014971713 0.014766076 -0.004750117 0.0012294122 -0.013466682 0.004041213 0.008567017 0.011384807 -0.01603244 -0.012641499 0.015340675 0.008404519 0.0026074478 -0.015761329 -0.0042210366 -0.018509803 0.0043443483 -0.0060054716 0.0008461066 0.010733018 0.0046872525 -0.016154557 0.00043614156 -0.016304068 -0.0069974693 0.0053287656 0.015142621 -0.014812096 0.0057210526 0.0147761265 0.021715421 0.01358149 -0.014116902 0.009218818 0.016721925 0.010666441 0.004198396 -0.0032363746 0.007032684 0.012326472 0.018161083 -0.0070876004 -0.01929211 0.015350041 -0.012849859
special -0.0009947302 0.0025135933 -0.0017927468 -0.008568725 0.002410143 -0.021786837 0.004209147 -0.0057740207 -0.014237167 0.008046745 0.001815628 0.00509386 0.0026505839 -0.018676601 0.019452704 -0.0063619893 -0.002994744 0.014564718 -0.0029705912 0.004382693 0.0047695697 0.00652001 0.016152114 0.018105594 0.00056796486 -0.006840806 0.0078148795 -0.017770654 0.014529268 0.0051076063 0.01339353 0.0052586608 -0.0036778178 0.00244264 -0.010590699 0.020069199 0.010823502 0.008296486 -0.008779223 -0.018445745 0.017886832 0.0050484934 -0.008554484 -0.01721525 -0.0044495575 0.0025942666 -0.018056152 -0.0013354833 0.008202527 -0.02048745
spici -7.102667e-06 -0.01206282 -0.0067820814 -0.0032446077 -0.01941772 -0.009722114 -0.012432883 -0.011774917 0.00043199718 0.004839194 0.017353188 0.01556224 -0.012002721 -0.01754548 0.015142577 0.011952692 0.015246981 -0.005021987 -0.013661319 -0.010884596 -0.0166336 0.013575196 -0.0041891607 0.016524851 -0.00942385 0.019481385 -0.010789284 0.016429529 -0.013555945 -0.014719887 0.016660979 -0.020200994 -0.01927609 0.010998619 -0.020924842 0.012570521 0.008371485 -0.013325209 0.007309904 0.0014730121 0.019770306 0.004970829 -0.009956189 -0.00478771 0.018361114 -0.012842794 0.018853955 -0.008796243 -0.0074760783 -0.008634276
dessert 0.006405599 -0.019721465 0.006744735 -0.008985309 0.019999556 -0.012183401 -0.01474355 0.00944208 0.015572746 0.0060033035 -0.0055398564 0.0049609956 -0.017416554 -0.007907346 -0.009819567 0.0044099516 -0.011220669 -0.014864164 -0.015665103 0.009235633 0.0055008885 0.019318765 0.007325298 0.010052171 0.010115797 0.009353476 -0.011294283 0.0022766874 -0.0014972485 0.011054064 -0.012452119 -0.0020693196 0.0073177554 -0.008899423 -0.018146541 0.012728386 -0.000878972 0.0015487757 -0.011038292 0.015737168 0.003655915 0.0028165844 -0.0007493848 0.0014971223 0.015013376 -0.01794695 0.005187377 -0.012912976 0.020445304 0.008548417
two -0.0106440075 -0.0025849387 -0.010596959 0.017182305 0.019125279 0.0016567105 0.020931134 -0.005959687 0.0023697352 -0.009422982 -0.0190274 -0.011185206 -0.0019047561 -0.010598107 -0.01030012 0.0019227116 0.0015238421 -0.016097287 0.010350879 0.0012453884 -0.01895588 -0.0007702493 -0.012251471 0.014093039 1.4977595e-06 0.016003042 0.008491365 -0.009223324 -0.02095348 -0.011941703 0.019345777 -0.0037145768 -0.0017530924 0.0011353944 -0.017786069 0.010818122 -0.015169416 0.019746436 -0.015010137 0.014456065 -0.0014072596 -0.0055067358 -0.0043960423 0.0021193197 0.00973354 0.0037647095 -0.0007163186 0.013243142 -0.010405613 -0.016522089
busi -0.014616462 0.012279347 -0.0038548578 -0.009765189 0.010337761 -0.017731575 0.0070095146 0.021667575 0.01112995 -0.00614111 0.0036083525 0.0075496705 0.01957647 -0.0050495667 0.0019107825 -0.0083230175 -0.0053356746 0.002336422 0.0015171899 -0.012120379 0.008623484 -0.008767894 -0.006834227 -0.018682238 0.016589934 0.009215077 -0.005513668 0.016253006 0.0016981417 -0.019894645 -0.014634454 -0.008354401 -0.015156376 0.015641337 0.009431347 0.005537124 -4.8755253e-05 -0.0143226 0.013261304 -0.011528032 -0.0040578246 -0.012686156 -0.0043553193 -0.018555406 0.009473857 -0.01472919 0.013747496 -0.016543638 -0.0098609375 -0.0001092133
overal -0.016177759 0.010615694 -0.00840989 0.0005433573 0.0158661 0.00509152 0.00021334719 0.016699007 -0.0016714544 0.011070719 0.011457607 -0.017313603 0.003860531 -0.018477406 -0.0030439259 0.01777441 -0.0042787073 -0.009484106 0.0043176506 0.013996255 0.013163688 -0.012651175 0.014910551 0.015062224 -0.010018373 -0.0021807756 -0.0016803647 -0.019280734 -0.006077144 0.019981137 -0.0045858705 -0.015600823 -0.008769794 -0.018813787 0.0035715727 0.013165208 0.0017546823 -0.006678442 0.019278012 -0.019405141 -0.008263789 -0.01996836 0.01927166 -0.0038717347 -0.008859209 -0.015674466 0.016668515 -0.0067620273 -0.01088028 0.0073160687
wast -0.013869137 0.01834979 0.013262877 -0.0088740885 -0.005824776 0.0012616043 -0.01854306 0.010724396 0.0064727548 0.012018299 -0.018648794 -0.0023524268 -0.012278428 0.0120812 0.01907785 -0.0008612708 -0.014985708 0.01029304 -0.0027901244 0.003917089 -0.0127328215 -0.00019910678 -0.0032745267 0.014156212 -0.014256017 -0.0071645165 -0.0035543279 -0.005968589 0.010014343 -0.000532504 -0.004325554 -0.017736724 -0.019956924 0.0042751185 -0.0023992457 -0.017778909 0.015306186 0.015475934 0.013373273 -0.007068821 0.001191455 0.014693735 -0.013159022 -0.014136867 -0.013504249 0.00877308 -0.018443849 0.0018519717 0.017261993 0.002641321
review -0.019355223 0.01614391 0.011633565 -0.016918305 0.011982272 0.014594319 0.01362381 -0.006215642 0.010002882 -0.009681578 -0.015884385 0.005161089 -0.010068143 -0.0025706664 -0.0112652015 -0.01431108 -0.0020409452 0.0032338463 -0.00044122786 0.0136565585 0.0073896362 -0.018243639 -0.0150836725 -0.0042249663 -0.0035778275 -0.012548279 0.01661272 0.008087326 -0.017340636 0.011837832 -0.0021599608 -0.0148099 -0.0009840704 0.014464269 -0.011040723 -0.0060230987 -0.0033209322 0.010233647 0.010612629 -0.015894977 -0.0153844245 -0.0021092175 0.0060774367 0.0061282353 0.009961767 -4.4262742e-05 -0.0023326606 0.005587164 0.00092002837 0.010788458
chip 0.0021834043 0.01713113 -0.0074118283 0.005291833 0.007367945 -0.015788088 0.019603476 0.01366675 0.006650017 -0.0025999907 0.018139295 0.005040027 -0.0019359036 0.008769639 0.010628881 0.016509805 0.004527304 0.0042160354 -0.009367575 -0.012750072 -0.017611107 -0.0016364764 -0.002368111 0.0040251217 0.0018762604 0.0027696572 0.008808267 -0.013355401 0.01142531 0.013265553 0.013373461 0.002589992 -0.0016579989 0.0038815723 -0.016294543 -0.009515387 0.0052565164 0.00072692405 0.009685712 -0.010839452 0.012586164 -0.007735687 0.013037318 -0.006228256 -0.004046608 0.004843456 -0.002069876 -0.007111685 -0.0047610505 0.016188156
felt -0.0181249 0.010096359 -0.005592896 0.01891003 0.009082693 0.0022150427 -0.0046446156 6.178347e-05 -0.013792911 -0.0038465543 0.0115891555 -0.021137571 0.0069633657 0.009045596 0.014135371 -0.0068260897 0.012008717 -0.01839447 -0.0024207952 0.014753855 0.008473142 -0.008713977 -0.0026101272 -0.01710559 0.002467774 0.010058115 -0.016006388 0.010014689 -0.010900344 0.011370113 0.012502587 0.003857516 -0.0037750436 -0.017964307 -0.012440379 0.0036374729 -0.018850077 0.019378731 0.007991406 -0.0032768913 0.019573983 -0.009213795 0.0028810995 0.0021875224 0.018680051 0.0053681987 -0.0057786745 -0.010344618 -0.013697866 0.010743047
